=== Run information ===

Scheme:weka.classifiers.trees.J48 -C 0.001 -M 2
Relation:     cogs_speaker
Instances:    285036
Attributes:   61
              0
              1
              2
              3
              4
              5
              6
              7
              8
              9
              10
              11
              12
              13
              14
              15
              16
              17
              18
              19
              20
              21
              22
              23
              24
              25
              26
              27
              28
              29
              30
              31
              32
              33
              34
              35
              36
              37
              38
              39
              40
              41
              42
              43
              44
              45
              46
              47
              48
              49
              50
              51
              52
              53
              54
              55
              56
              57
              58
              59
              class
Test mode:2-fold cross-validation

=== Classifier model (full training set) ===

J48 pruned tree
------------------

29 <= 4.574691
|   20 <= 3.076021
|   |   19 <= 1.486158
|   |   |   32 <= 3.164452
|   |   |   |   23 <= -3.439972
|   |   |   |   |   33 <= -0.692632
|   |   |   |   |   |   29 <= 1.959764
|   |   |   |   |   |   |   30 <= 2.681584
|   |   |   |   |   |   |   |   31 <= 1.54923: Marvin (150.0/13.0)
|   |   |   |   |   |   |   |   31 > 1.54923: Kamuran (6.0/2.0)
|   |   |   |   |   |   |   30 > 2.681584: Kamuran (7.0)
|   |   |   |   |   |   29 > 1.959764
|   |   |   |   |   |   |   4 <= -1.079372: Firat (2.0/1.0)
|   |   |   |   |   |   |   4 > -1.079372: Kamuran (17.0)
|   |   |   |   |   33 > -0.692632
|   |   |   |   |   |   22 <= -0.316632: Kamuran (138.0/14.0)
|   |   |   |   |   |   22 > -0.316632
|   |   |   |   |   |   |   26 <= -2.407629: Firat (5.0)
|   |   |   |   |   |   |   26 > -2.407629
|   |   |   |   |   |   |   |   7 <= 0.048178
|   |   |   |   |   |   |   |   |   8 <= -1.205784: Kamuran (6.0)
|   |   |   |   |   |   |   |   |   8 > -1.205784
|   |   |   |   |   |   |   |   |   |   31 <= 0.77243
|   |   |   |   |   |   |   |   |   |   |   13 <= -0.157599
|   |   |   |   |   |   |   |   |   |   |   |   51 <= -1.41418: Kamuran (2.0)
|   |   |   |   |   |   |   |   |   |   |   |   51 > -1.41418: Marvin (23.0/1.0)
|   |   |   |   |   |   |   |   |   |   |   13 > -0.157599
|   |   |   |   |   |   |   |   |   |   |   |   51 <= 1.049439
|   |   |   |   |   |   |   |   |   |   |   |   |   5 <= 0.651275: Firat (9.0)
|   |   |   |   |   |   |   |   |   |   |   |   |   5 > 0.651275: Marvin (2.0)
|   |   |   |   |   |   |   |   |   |   |   |   51 > 1.049439: Marvin (4.0/1.0)
|   |   |   |   |   |   |   |   |   |   31 > 0.77243
|   |   |   |   |   |   |   |   |   |   |   0 <= -0.794711: Kamuran (5.0)
|   |   |   |   |   |   |   |   |   |   |   0 > -0.794711: Firat (7.0/1.0)
|   |   |   |   |   |   |   |   7 > 0.048178
|   |   |   |   |   |   |   |   |   2 <= 1.298195
|   |   |   |   |   |   |   |   |   |   6 <= -0.975819
|   |   |   |   |   |   |   |   |   |   |   2 <= 0.575133: Kamuran (3.0)
|   |   |   |   |   |   |   |   |   |   |   2 > 0.575133: Marvin (5.0)
|   |   |   |   |   |   |   |   |   |   6 > -0.975819
|   |   |   |   |   |   |   |   |   |   |   10 <= -1.358485: Marvin (2.0)
|   |   |   |   |   |   |   |   |   |   |   10 > -1.358485: Kamuran (39.0/1.0)
|   |   |   |   |   |   |   |   |   2 > 1.298195: Marvin (6.0)
|   |   |   |   23 > -3.439972
|   |   |   |   |   16 <= -2.214081
|   |   |   |   |   |   13 <= 0.396091
|   |   |   |   |   |   |   12 <= -2.678815
|   |   |   |   |   |   |   |   7 <= 0.083482: Marvin (3.0/1.0)
|   |   |   |   |   |   |   |   7 > 0.083482: Kamuran (28.0)
|   |   |   |   |   |   |   12 > -2.678815
|   |   |   |   |   |   |   |   0 <= -1.545493
|   |   |   |   |   |   |   |   |   19 <= 1.171892: Marvin (152.0/12.0)
|   |   |   |   |   |   |   |   |   19 > 1.171892
|   |   |   |   |   |   |   |   |   |   11 <= 1.175943
|   |   |   |   |   |   |   |   |   |   |   22 <= 0.241444: Firat (5.0)
|   |   |   |   |   |   |   |   |   |   |   22 > 0.241444: Marvin (3.0)
|   |   |   |   |   |   |   |   |   |   11 > 1.175943: Kamuran (5.0)
|   |   |   |   |   |   |   |   0 > -1.545493
|   |   |   |   |   |   |   |   |   13 <= -0.560035
|   |   |   |   |   |   |   |   |   |   1 <= 0.989988
|   |   |   |   |   |   |   |   |   |   |   14 <= 1.829579
|   |   |   |   |   |   |   |   |   |   |   |   19 <= 0.118249
|   |   |   |   |   |   |   |   |   |   |   |   |   6 <= 0.416847
|   |   |   |   |   |   |   |   |   |   |   |   |   |   8 <= -1.118171
|   |   |   |   |   |   |   |   |   |   |   |   |   |   |   9 <= 0.963953: Firat (30.0/5.0)
|   |   |   |   |   |   |   |   |   |   |   |   |   |   |   9 > 0.963953: Marvin (4.0)
|   |   |   |   |   |   |   |   |   |   |   |   |   |   8 > -1.118171
|   |   |   |   |   |   |   |   |   |   |   |   |   |   |   40 <= -0.783851
|   |   |   |   |   |   |   |   |   |   |   |   |   |   |   |   27 <= 0.32641: Firat (14.0/1.0)
|   |   |   |   |   |   |   |   |   |   |   |   |   |   |   |   27 > 0.32641
|   |   |   |   |   |   |   |   |   |   |   |   |   |   |   |   |   13 <= -1.453271: Firat (2.0)
|   |   |   |   |   |   |   |   |   |   |   |   |   |   |   |   |   13 > -1.453271: Marvin (9.0)
|   |   |   |   |   |   |   |   |   |   |   |   |   |   |   40 > -0.783851: Marvin (83.0/18.0)
|   |   |   |   |   |   |   |   |   |   |   |   |   6 > 0.416847
|   |   |   |   |   |   |   |   |   |   |   |   |   |   25 <= -0.546486: Firat (3.0)
|   |   |   |   |   |   |   |   |   |   |   |   |   |   25 > -0.546486
|   |   |   |   |   |   |   |   |   |   |   |   |   |   |   3 <= 1.474737: Marvin (22.0/1.0)
|   |   |   |   |   |   |   |   |   |   |   |   |   |   |   3 > 1.474737: Kamuran (2.0)
|   |   |   |   |   |   |   |   |   |   |   |   19 > 0.118249
|   |   |   |   |   |   |   |   |   |   |   |   |   0 <= 0.882349
|   |   |   |   |   |   |   |   |   |   |   |   |   |   39 <= 1.623386
|   |   |   |   |   |   |   |   |   |   |   |   |   |   |   3 <= -2.08381
|   |   |   |   |   |   |   |   |   |   |   |   |   |   |   |   27 <= -0.647019: Firat (7.0)
|   |   |   |   |   |   |   |   |   |   |   |   |   |   |   |   27 > -0.647019
|   |   |   |   |   |   |   |   |   |   |   |   |   |   |   |   |   9 <= -0.688603
|   |   |   |   |   |   |   |   |   |   |   |   |   |   |   |   |   |   59 <= 0.149007: Marvin (6.0/1.0)
|   |   |   |   |   |   |   |   |   |   |   |   |   |   |   |   |   |   59 > 0.149007: Firat (5.0)
|   |   |   |   |   |   |   |   |   |   |   |   |   |   |   |   |   9 > -0.688603: Marvin (15.0)
|   |   |   |   |   |   |   |   |   |   |   |   |   |   |   3 > -2.08381
|   |   |   |   |   |   |   |   |   |   |   |   |   |   |   |   4 <= 0.316115: Firat (198.0/38.0)
|   |   |   |   |   |   |   |   |   |   |   |   |   |   |   |   4 > 0.316115
|   |   |   |   |   |   |   |   |   |   |   |   |   |   |   |   |   11 <= 0.898941
|   |   |   |   |   |   |   |   |   |   |   |   |   |   |   |   |   |   9 <= -0.298996: Marvin (18.0)
|   |   |   |   |   |   |   |   |   |   |   |   |   |   |   |   |   |   9 > -0.298996: Firat (6.0/1.0)
|   |   |   |   |   |   |   |   |   |   |   |   |   |   |   |   |   11 > 0.898941
|   |   |   |   |   |   |   |   |   |   |   |   |   |   |   |   |   |   8 <= -0.19088: Firat (12.0)
|   |   |   |   |   |   |   |   |   |   |   |   |   |   |   |   |   |   8 > -0.19088: Marvin (2.0)
|   |   |   |   |   |   |   |   |   |   |   |   |   |   39 > 1.623386: Marvin (11.0/1.0)
|   |   |   |   |   |   |   |   |   |   |   |   |   0 > 0.882349
|   |   |   |   |   |   |   |   |   |   |   |   |   |   9 <= 0.284629
|   |   |   |   |   |   |   |   |   |   |   |   |   |   |   11 <= -1.036092: Firat (5.0)
|   |   |   |   |   |   |   |   |   |   |   |   |   |   |   11 > -1.036092: Marvin (10.0/1.0)
|   |   |   |   |   |   |   |   |   |   |   |   |   |   9 > 0.284629: Kamuran (4.0/1.0)
|   |   |   |   |   |   |   |   |   |   |   14 > 1.829579
|   |   |   |   |   |   |   |   |   |   |   |   2 <= -1.814021: Kamuran (2.0/1.0)
|   |   |   |   |   |   |   |   |   |   |   |   2 > -1.814021: Marvin (16.0)
|   |   |   |   |   |   |   |   |   |   1 > 0.989988
|   |   |   |   |   |   |   |   |   |   |   14 <= -1.752292: Firat (3.0)
|   |   |   |   |   |   |   |   |   |   |   14 > -1.752292: Marvin (80.0/6.0)
|   |   |   |   |   |   |   |   |   13 > -0.560035
|   |   |   |   |   |   |   |   |   |   8 <= 2.390629
|   |   |   |   |   |   |   |   |   |   |   14 <= 0.093672
|   |   |   |   |   |   |   |   |   |   |   |   59 <= 0.619496
|   |   |   |   |   |   |   |   |   |   |   |   |   3 <= 0.298046
|   |   |   |   |   |   |   |   |   |   |   |   |   |   53 <= 1.702641
|   |   |   |   |   |   |   |   |   |   |   |   |   |   |   15 <= 0.658738
|   |   |   |   |   |   |   |   |   |   |   |   |   |   |   |   4 <= 1.389469: Firat (171.0/66.0)
|   |   |   |   |   |   |   |   |   |   |   |   |   |   |   |   4 > 1.389469
|   |   |   |   |   |   |   |   |   |   |   |   |   |   |   |   |   12 <= 0.58719: Marvin (6.0/1.0)
|   |   |   |   |   |   |   |   |   |   |   |   |   |   |   |   |   12 > 0.58719: Kamuran (5.0/1.0)
|   |   |   |   |   |   |   |   |   |   |   |   |   |   |   15 > 0.658738
|   |   |   |   |   |   |   |   |   |   |   |   |   |   |   |   25 <= 0.253675
|   |   |   |   |   |   |   |   |   |   |   |   |   |   |   |   |   22 <= -0.396672
|   |   |   |   |   |   |   |   |   |   |   |   |   |   |   |   |   |   13 <= -0.195231: Marvin (12.0)
|   |   |   |   |   |   |   |   |   |   |   |   |   |   |   |   |   |   13 > -0.195231
|   |   |   |   |   |   |   |   |   |   |   |   |   |   |   |   |   |   |   55 <= -1.761367: Marvin (4.0)
|   |   |   |   |   |   |   |   |   |   |   |   |   |   |   |   |   |   |   55 > -1.761367: Firat (7.0/1.0)
|   |   |   |   |   |   |   |   |   |   |   |   |   |   |   |   |   22 > -0.396672
|   |   |   |   |   |   |   |   |   |   |   |   |   |   |   |   |   |   6 <= -0.910273: Marvin (6.0/1.0)
|   |   |   |   |   |   |   |   |   |   |   |   |   |   |   |   |   |   6 > -0.910273
|   |   |   |   |   |   |   |   |   |   |   |   |   |   |   |   |   |   |   28 <= 1.514711
|   |   |   |   |   |   |   |   |   |   |   |   |   |   |   |   |   |   |   |   1 <= 0.833561: Firat (40.0)
|   |   |   |   |   |   |   |   |   |   |   |   |   |   |   |   |   |   |   |   1 > 0.833561: Firat (5.0/2.0)
|   |   |   |   |   |   |   |   |   |   |   |   |   |   |   |   |   |   |   28 > 1.514711: Marvin (4.0/1.0)
|   |   |   |   |   |   |   |   |   |   |   |   |   |   |   |   25 > 0.253675: Marvin (52.0/11.0)
|   |   |   |   |   |   |   |   |   |   |   |   |   |   53 > 1.702641
|   |   |   |   |   |   |   |   |   |   |   |   |   |   |   11 <= 0.597216: Marvin (7.0)
|   |   |   |   |   |   |   |   |   |   |   |   |   |   |   11 > 0.597216: Kamuran (6.0/1.0)
|   |   |   |   |   |   |   |   |   |   |   |   |   3 > 0.298046
|   |   |   |   |   |   |   |   |   |   |   |   |   |   12 <= 1.735765
|   |   |   |   |   |   |   |   |   |   |   |   |   |   |   9 <= -2.050299
|   |   |   |   |   |   |   |   |   |   |   |   |   |   |   |   5 <= -1.68399: Marvin (3.0)
|   |   |   |   |   |   |   |   |   |   |   |   |   |   |   |   5 > -1.68399: Firat (8.0)
|   |   |   |   |   |   |   |   |   |   |   |   |   |   |   9 > -2.050299: Marvin (64.0/8.0)
|   |   |   |   |   |   |   |   |   |   |   |   |   |   12 > 1.735765: Kamuran (7.0/2.0)
|   |   |   |   |   |   |   |   |   |   |   |   59 > 0.619496
|   |   |   |   |   |   |   |   |   |   |   |   |   4 <= 1.390253: Marvin (100.0/12.0)
|   |   |   |   |   |   |   |   |   |   |   |   |   4 > 1.390253: Firat (8.0/4.0)
|   |   |   |   |   |   |   |   |   |   |   14 > 0.093672
|   |   |   |   |   |   |   |   |   |   |   |   18 <= -0.938925
|   |   |   |   |   |   |   |   |   |   |   |   |   31 <= -0.650078: Firat (10.0/1.0)
|   |   |   |   |   |   |   |   |   |   |   |   |   31 > -0.650078
|   |   |   |   |   |   |   |   |   |   |   |   |   |   35 <= 0.602032
|   |   |   |   |   |   |   |   |   |   |   |   |   |   |   5 <= 0.866129: Marvin (22.0)
|   |   |   |   |   |   |   |   |   |   |   |   |   |   |   5 > 0.866129: Firat (2.0)
|   |   |   |   |   |   |   |   |   |   |   |   |   |   35 > 0.602032
|   |   |   |   |   |   |   |   |   |   |   |   |   |   |   12 <= 0.540697: Marvin (9.0/2.0)
|   |   |   |   |   |   |   |   |   |   |   |   |   |   |   12 > 0.540697: Firat (10.0/1.0)
|   |   |   |   |   |   |   |   |   |   |   |   18 > -0.938925
|   |   |   |   |   |   |   |   |   |   |   |   |   11 <= 0.056782
|   |   |   |   |   |   |   |   |   |   |   |   |   |   3 <= 1.899044
|   |   |   |   |   |   |   |   |   |   |   |   |   |   |   9 <= 1.948048
|   |   |   |   |   |   |   |   |   |   |   |   |   |   |   |   23 <= -1.378386: Marvin (10.0)
|   |   |   |   |   |   |   |   |   |   |   |   |   |   |   |   23 > -1.378386
|   |   |   |   |   |   |   |   |   |   |   |   |   |   |   |   |   10 <= 2.19871
|   |   |   |   |   |   |   |   |   |   |   |   |   |   |   |   |   |   7 <= -1.071721
|   |   |   |   |   |   |   |   |   |   |   |   |   |   |   |   |   |   |   5 <= 0.620022: Marvin (7.0)
|   |   |   |   |   |   |   |   |   |   |   |   |   |   |   |   |   |   |   5 > 0.620022: Kamuran (4.0/1.0)
|   |   |   |   |   |   |   |   |   |   |   |   |   |   |   |   |   |   7 > -1.071721
|   |   |   |   |   |   |   |   |   |   |   |   |   |   |   |   |   |   |   22 <= 0.97941
|   |   |   |   |   |   |   |   |   |   |   |   |   |   |   |   |   |   |   |   44 <= -0.852871
|   |   |   |   |   |   |   |   |   |   |   |   |   |   |   |   |   |   |   |   |   19 <= 0.838399
|   |   |   |   |   |   |   |   |   |   |   |   |   |   |   |   |   |   |   |   |   |   9 <= 1.183207
|   |   |   |   |   |   |   |   |   |   |   |   |   |   |   |   |   |   |   |   |   |   |   4 <= 0.515138
|   |   |   |   |   |   |   |   |   |   |   |   |   |   |   |   |   |   |   |   |   |   |   |   13 <= -0.319548: Marvin (3.0)
|   |   |   |   |   |   |   |   |   |   |   |   |   |   |   |   |   |   |   |   |   |   |   |   13 > -0.319548: Firat (5.0)
|   |   |   |   |   |   |   |   |   |   |   |   |   |   |   |   |   |   |   |   |   |   |   4 > 0.515138: Marvin (8.0)
|   |   |   |   |   |   |   |   |   |   |   |   |   |   |   |   |   |   |   |   |   |   9 > 1.183207: Kamuran (4.0/2.0)
|   |   |   |   |   |   |   |   |   |   |   |   |   |   |   |   |   |   |   |   |   19 > 0.838399: Kamuran (5.0)
|   |   |   |   |   |   |   |   |   |   |   |   |   |   |   |   |   |   |   |   44 > -0.852871: Firat (61.0/9.0)
|   |   |   |   |   |   |   |   |   |   |   |   |   |   |   |   |   |   |   22 > 0.97941
|   |   |   |   |   |   |   |   |   |   |   |   |   |   |   |   |   |   |   |   8 <= -1.688891: Firat (4.0/1.0)
|   |   |   |   |   |   |   |   |   |   |   |   |   |   |   |   |   |   |   |   8 > -1.688891
|   |   |   |   |   |   |   |   |   |   |   |   |   |   |   |   |   |   |   |   |   19 <= -0.287069: Marvin (8.0)
|   |   |   |   |   |   |   |   |   |   |   |   |   |   |   |   |   |   |   |   |   19 > -0.287069
|   |   |   |   |   |   |   |   |   |   |   |   |   |   |   |   |   |   |   |   |   |   50 <= 0.486408: Kamuran (8.0)
|   |   |   |   |   |   |   |   |   |   |   |   |   |   |   |   |   |   |   |   |   |   50 > 0.486408: Marvin (4.0)
|   |   |   |   |   |   |   |   |   |   |   |   |   |   |   |   |   10 > 2.19871: Marvin (7.0)
|   |   |   |   |   |   |   |   |   |   |   |   |   |   |   9 > 1.948048: Kamuran (5.0)
|   |   |   |   |   |   |   |   |   |   |   |   |   |   3 > 1.899044: Kamuran (7.0)
|   |   |   |   |   |   |   |   |   |   |   |   |   11 > 0.056782
|   |   |   |   |   |   |   |   |   |   |   |   |   |   12 <= 0.09593
|   |   |   |   |   |   |   |   |   |   |   |   |   |   |   6 <= -0.259299
|   |   |   |   |   |   |   |   |   |   |   |   |   |   |   |   53 <= 0.729246: Firat (10.0/1.0)
|   |   |   |   |   |   |   |   |   |   |   |   |   |   |   |   53 > 0.729246: Kamuran (10.0/1.0)
|   |   |   |   |   |   |   |   |   |   |   |   |   |   |   6 > -0.259299
|   |   |   |   |   |   |   |   |   |   |   |   |   |   |   |   5 <= 0.281493
|   |   |   |   |   |   |   |   |   |   |   |   |   |   |   |   |   17 <= 1.738161
|   |   |   |   |   |   |   |   |   |   |   |   |   |   |   |   |   |   3 <= -1.170674: Firat (2.0)
|   |   |   |   |   |   |   |   |   |   |   |   |   |   |   |   |   |   3 > -1.170674: Marvin (22.0/1.0)
|   |   |   |   |   |   |   |   |   |   |   |   |   |   |   |   |   17 > 1.738161: Firat (3.0)
|   |   |   |   |   |   |   |   |   |   |   |   |   |   |   |   5 > 0.281493: Firat (6.0)
|   |   |   |   |   |   |   |   |   |   |   |   |   |   12 > 0.09593
|   |   |   |   |   |   |   |   |   |   |   |   |   |   |   17 <= 0.869188
|   |   |   |   |   |   |   |   |   |   |   |   |   |   |   |   19 <= 1.107297: Kamuran (111.0/6.0)
|   |   |   |   |   |   |   |   |   |   |   |   |   |   |   |   19 > 1.107297
|   |   |   |   |   |   |   |   |   |   |   |   |   |   |   |   |   26 <= 0.883198
|   |   |   |   |   |   |   |   |   |   |   |   |   |   |   |   |   |   29 <= -1.38454: Firat (2.0)
|   |   |   |   |   |   |   |   |   |   |   |   |   |   |   |   |   |   29 > -1.38454: Kamuran (17.0)
|   |   |   |   |   |   |   |   |   |   |   |   |   |   |   |   |   26 > 0.883198
|   |   |   |   |   |   |   |   |   |   |   |   |   |   |   |   |   |   17 <= -1.449405: Kamuran (2.0)
|   |   |   |   |   |   |   |   |   |   |   |   |   |   |   |   |   |   17 > -1.449405: Firat (10.0)
|   |   |   |   |   |   |   |   |   |   |   |   |   |   |   17 > 0.869188
|   |   |   |   |   |   |   |   |   |   |   |   |   |   |   |   19 <= 0.698994
|   |   |   |   |   |   |   |   |   |   |   |   |   |   |   |   |   14 <= 0.704549: Marvin (6.0)
|   |   |   |   |   |   |   |   |   |   |   |   |   |   |   |   |   14 > 0.704549: Kamuran (6.0/1.0)
|   |   |   |   |   |   |   |   |   |   |   |   |   |   |   |   19 > 0.698994: Firat (9.0/1.0)
|   |   |   |   |   |   |   |   |   |   8 > 2.390629: Kamuran (26.0/2.0)
|   |   |   |   |   |   13 > 0.396091
|   |   |   |   |   |   |   12 <= 0.322761
|   |   |   |   |   |   |   |   19 <= 0.070969
|   |   |   |   |   |   |   |   |   3 <= 0.147858
|   |   |   |   |   |   |   |   |   |   14 <= 0.544064
|   |   |   |   |   |   |   |   |   |   |   11 <= 1.389008
|   |   |   |   |   |   |   |   |   |   |   |   1 <= 0.911445
|   |   |   |   |   |   |   |   |   |   |   |   |   2 <= 0.158666
|   |   |   |   |   |   |   |   |   |   |   |   |   |   7 <= 0.069271
|   |   |   |   |   |   |   |   |   |   |   |   |   |   |   41 <= 0.420976: Firat (6.0/1.0)
|   |   |   |   |   |   |   |   |   |   |   |   |   |   |   41 > 0.420976: Marvin (6.0)
|   |   |   |   |   |   |   |   |   |   |   |   |   |   7 > 0.069271: Marvin (23.0)
|   |   |   |   |   |   |   |   |   |   |   |   |   2 > 0.158666
|   |   |   |   |   |   |   |   |   |   |   |   |   |   19 <= -0.797113
|   |   |   |   |   |   |   |   |   |   |   |   |   |   |   3 <= -0.844523: Firat (2.0)
|   |   |   |   |   |   |   |   |   |   |   |   |   |   |   3 > -0.844523: Marvin (11.0/2.0)
|   |   |   |   |   |   |   |   |   |   |   |   |   |   19 > -0.797113
|   |   |   |   |   |   |   |   |   |   |   |   |   |   |   27 <= -1.241233: Marvin (4.0)
|   |   |   |   |   |   |   |   |   |   |   |   |   |   |   27 > -1.241233
|   |   |   |   |   |   |   |   |   |   |   |   |   |   |   |   50 <= -1.981712: Marvin (2.0)
|   |   |   |   |   |   |   |   |   |   |   |   |   |   |   |   50 > -1.981712: Firat (32.0/3.0)
|   |   |   |   |   |   |   |   |   |   |   |   1 > 0.911445
|   |   |   |   |   |   |   |   |   |   |   |   |   7 <= 0.796619: Marvin (9.0)
|   |   |   |   |   |   |   |   |   |   |   |   |   7 > 0.796619: Kamuran (7.0/1.0)
|   |   |   |   |   |   |   |   |   |   |   11 > 1.389008
|   |   |   |   |   |   |   |   |   |   |   |   3 <= -0.206356: Kamuran (6.0)
|   |   |   |   |   |   |   |   |   |   |   |   3 > -0.206356: Marvin (2.0)
|   |   |   |   |   |   |   |   |   |   14 > 0.544064
|   |   |   |   |   |   |   |   |   |   |   12 <= -0.364597
|   |   |   |   |   |   |   |   |   |   |   |   19 <= -0.515033: Marvin (6.0)
|   |   |   |   |   |   |   |   |   |   |   |   19 > -0.515033: Kamuran (2.0)
|   |   |   |   |   |   |   |   |   |   |   12 > -0.364597: Kamuran (9.0)
|   |   |   |   |   |   |   |   |   3 > 0.147858: Marvin (201.0/30.0)
|   |   |   |   |   |   |   |   19 > 0.070969
|   |   |   |   |   |   |   |   |   14 <= -0.38213
|   |   |   |   |   |   |   |   |   |   17 <= 2.594133
|   |   |   |   |   |   |   |   |   |   |   13 <= 2.035282
|   |   |   |   |   |   |   |   |   |   |   |   3 <= 1.026934
|   |   |   |   |   |   |   |   |   |   |   |   |   44 <= -1.071723
|   |   |   |   |   |   |   |   |   |   |   |   |   |   16 <= -2.388855
|   |   |   |   |   |   |   |   |   |   |   |   |   |   |   7 <= 0.240357: Firat (3.0)
|   |   |   |   |   |   |   |   |   |   |   |   |   |   |   7 > 0.240357: Marvin (9.0/1.0)
|   |   |   |   |   |   |   |   |   |   |   |   |   |   16 > -2.388855: Kamuran (2.0)
|   |   |   |   |   |   |   |   |   |   |   |   |   44 > -1.071723
|   |   |   |   |   |   |   |   |   |   |   |   |   |   35 <= 1.051129
|   |   |   |   |   |   |   |   |   |   |   |   |   |   |   38 <= -1.239431
|   |   |   |   |   |   |   |   |   |   |   |   |   |   |   |   22 <= 1.347681: Marvin (7.0)
|   |   |   |   |   |   |   |   |   |   |   |   |   |   |   |   22 > 1.347681: Firat (3.0)
|   |   |   |   |   |   |   |   |   |   |   |   |   |   |   38 > -1.239431
|   |   |   |   |   |   |   |   |   |   |   |   |   |   |   |   39 <= 0.504456
|   |   |   |   |   |   |   |   |   |   |   |   |   |   |   |   |   52 <= 1.650541: Firat (71.0/1.0)
|   |   |   |   |   |   |   |   |   |   |   |   |   |   |   |   |   52 > 1.650541: Marvin (3.0/1.0)
|   |   |   |   |   |   |   |   |   |   |   |   |   |   |   |   39 > 0.504456
|   |   |   |   |   |   |   |   |   |   |   |   |   |   |   |   |   45 <= 0.514836: Marvin (6.0)
|   |   |   |   |   |   |   |   |   |   |   |   |   |   |   |   |   45 > 0.514836
|   |   |   |   |   |   |   |   |   |   |   |   |   |   |   |   |   |   0 <= 0.542936: Firat (6.0)
|   |   |   |   |   |   |   |   |   |   |   |   |   |   |   |   |   |   0 > 0.542936: Marvin (2.0)
|   |   |   |   |   |   |   |   |   |   |   |   |   |   35 > 1.051129
|   |   |   |   |   |   |   |   |   |   |   |   |   |   |   35 <= 2.207345
|   |   |   |   |   |   |   |   |   |   |   |   |   |   |   |   28 <= 0.607937: Marvin (10.0)
|   |   |   |   |   |   |   |   |   |   |   |   |   |   |   |   28 > 0.607937: Firat (3.0/1.0)
|   |   |   |   |   |   |   |   |   |   |   |   |   |   |   35 > 2.207345: Firat (4.0)
|   |   |   |   |   |   |   |   |   |   |   |   3 > 1.026934
|   |   |   |   |   |   |   |   |   |   |   |   |   59 <= -0.398889: Marvin (8.0/1.0)
|   |   |   |   |   |   |   |   |   |   |   |   |   59 > -0.398889
|   |   |   |   |   |   |   |   |   |   |   |   |   |   6 <= 0.439438: Firat (3.0)
|   |   |   |   |   |   |   |   |   |   |   |   |   |   6 > 0.439438: Kamuran (4.0)
|   |   |   |   |   |   |   |   |   |   |   13 > 2.035282
|   |   |   |   |   |   |   |   |   |   |   |   14 <= -0.82048
|   |   |   |   |   |   |   |   |   |   |   |   |   0 <= 0.681414: Firat (6.0)
|   |   |   |   |   |   |   |   |   |   |   |   |   0 > 0.681414: Marvin (2.0)
|   |   |   |   |   |   |   |   |   |   |   |   14 > -0.82048: Kamuran (10.0)
|   |   |   |   |   |   |   |   |   |   17 > 2.594133: Marvin (9.0)
|   |   |   |   |   |   |   |   |   14 > -0.38213
|   |   |   |   |   |   |   |   |   |   9 <= -1.772114
|   |   |   |   |   |   |   |   |   |   |   17 <= -1.089966: Kamuran (3.0)
|   |   |   |   |   |   |   |   |   |   |   17 > -1.089966
|   |   |   |   |   |   |   |   |   |   |   |   49 <= 0.241006: Marvin (4.0)
|   |   |   |   |   |   |   |   |   |   |   |   49 > 0.241006
|   |   |   |   |   |   |   |   |   |   |   |   |   10 <= -1.264289: Marvin (2.0)
|   |   |   |   |   |   |   |   |   |   |   |   |   10 > -1.264289
|   |   |   |   |   |   |   |   |   |   |   |   |   |   5 <= 0.782228: Firat (28.0)
|   |   |   |   |   |   |   |   |   |   |   |   |   |   5 > 0.782228: Marvin (3.0/1.0)
|   |   |   |   |   |   |   |   |   |   9 > -1.772114
|   |   |   |   |   |   |   |   |   |   |   3 <= 0.342623
|   |   |   |   |   |   |   |   |   |   |   |   4 <= 0.362197
|   |   |   |   |   |   |   |   |   |   |   |   |   7 <= -0.241869
|   |   |   |   |   |   |   |   |   |   |   |   |   |   12 <= -0.808266
|   |   |   |   |   |   |   |   |   |   |   |   |   |   |   0 <= 0.841142: Firat (11.0)
|   |   |   |   |   |   |   |   |   |   |   |   |   |   |   0 > 0.841142: Marvin (4.0/1.0)
|   |   |   |   |   |   |   |   |   |   |   |   |   |   12 > -0.808266
|   |   |   |   |   |   |   |   |   |   |   |   |   |   |   1 <= 1.023815
|   |   |   |   |   |   |   |   |   |   |   |   |   |   |   |   2 <= 0.027557
|   |   |   |   |   |   |   |   |   |   |   |   |   |   |   |   |   13 <= 1.371618: Firat (12.0)
|   |   |   |   |   |   |   |   |   |   |   |   |   |   |   |   |   13 > 1.371618: Kamuran (8.0/1.0)
|   |   |   |   |   |   |   |   |   |   |   |   |   |   |   |   2 > 0.027557
|   |   |   |   |   |   |   |   |   |   |   |   |   |   |   |   |   18 <= -0.158347: Firat (3.0/1.0)
|   |   |   |   |   |   |   |   |   |   |   |   |   |   |   |   |   18 > -0.158347: Kamuran (26.0)
|   |   |   |   |   |   |   |   |   |   |   |   |   |   |   1 > 1.023815: Marvin (2.0)
|   |   |   |   |   |   |   |   |   |   |   |   |   7 > -0.241869
|   |   |   |   |   |   |   |   |   |   |   |   |   |   8 <= 2.429271
|   |   |   |   |   |   |   |   |   |   |   |   |   |   |   2 <= 0.334485: Firat (36.0/5.0)
|   |   |   |   |   |   |   |   |   |   |   |   |   |   |   2 > 0.334485
|   |   |   |   |   |   |   |   |   |   |   |   |   |   |   |   3 <= -0.470912: Firat (7.0/2.0)
|   |   |   |   |   |   |   |   |   |   |   |   |   |   |   |   3 > -0.470912: Marvin (8.0)
|   |   |   |   |   |   |   |   |   |   |   |   |   |   8 > 2.429271: Kamuran (2.0)
|   |   |   |   |   |   |   |   |   |   |   |   4 > 0.362197
|   |   |   |   |   |   |   |   |   |   |   |   |   50 <= -1.024192
|   |   |   |   |   |   |   |   |   |   |   |   |   |   8 <= -0.545834: Firat (4.0/1.0)
|   |   |   |   |   |   |   |   |   |   |   |   |   |   8 > -0.545834: Marvin (3.0)
|   |   |   |   |   |   |   |   |   |   |   |   |   50 > -1.024192
|   |   |   |   |   |   |   |   |   |   |   |   |   |   0 <= 0.860659: Kamuran (47.0)
|   |   |   |   |   |   |   |   |   |   |   |   |   |   0 > 0.860659
|   |   |   |   |   |   |   |   |   |   |   |   |   |   |   12 <= 0.054243: Firat (5.0/2.0)
|   |   |   |   |   |   |   |   |   |   |   |   |   |   |   12 > 0.054243: Kamuran (3.0)
|   |   |   |   |   |   |   |   |   |   |   3 > 0.342623: Kamuran (131.0/10.0)
|   |   |   |   |   |   |   12 > 0.322761
|   |   |   |   |   |   |   |   14 <= -0.488615
|   |   |   |   |   |   |   |   |   11 <= -0.456027
|   |   |   |   |   |   |   |   |   |   5 <= 1.600455
|   |   |   |   |   |   |   |   |   |   |   6 <= -0.727512: Firat (26.0/2.0)
|   |   |   |   |   |   |   |   |   |   |   6 > -0.727512: Marvin (63.0/16.0)
|   |   |   |   |   |   |   |   |   |   5 > 1.600455: Kamuran (4.0/1.0)
|   |   |   |   |   |   |   |   |   11 > -0.456027
|   |   |   |   |   |   |   |   |   |   19 <= -0.858265
|   |   |   |   |   |   |   |   |   |   |   41 <= -1.580703: Firat (3.0)
|   |   |   |   |   |   |   |   |   |   |   41 > -1.580703
|   |   |   |   |   |   |   |   |   |   |   |   10 <= 1.103823: Marvin (19.0)
|   |   |   |   |   |   |   |   |   |   |   |   10 > 1.103823: Kamuran (2.0)
|   |   |   |   |   |   |   |   |   |   19 > -0.858265
|   |   |   |   |   |   |   |   |   |   |   10 <= -1.098308
|   |   |   |   |   |   |   |   |   |   |   |   38 <= 1.755885: Firat (16.0)
|   |   |   |   |   |   |   |   |   |   |   |   38 > 1.755885: Marvin (2.0)
|   |   |   |   |   |   |   |   |   |   |   10 > -1.098308
|   |   |   |   |   |   |   |   |   |   |   |   15 <= 0.731832
|   |   |   |   |   |   |   |   |   |   |   |   |   18 <= -0.011943
|   |   |   |   |   |   |   |   |   |   |   |   |   |   21 <= -0.938516: Kamuran (3.0/1.0)
|   |   |   |   |   |   |   |   |   |   |   |   |   |   21 > -0.938516: Firat (9.0/1.0)
|   |   |   |   |   |   |   |   |   |   |   |   |   18 > -0.011943
|   |   |   |   |   |   |   |   |   |   |   |   |   |   13 <= 0.609249: Firat (6.0/3.0)
|   |   |   |   |   |   |   |   |   |   |   |   |   |   13 > 0.609249
|   |   |   |   |   |   |   |   |   |   |   |   |   |   |   2 <= 0.904523
|   |   |   |   |   |   |   |   |   |   |   |   |   |   |   |   41 <= -1.103665: Kamuran (6.0/2.0)
|   |   |   |   |   |   |   |   |   |   |   |   |   |   |   |   41 > -1.103665: Kamuran (105.0)
|   |   |   |   |   |   |   |   |   |   |   |   |   |   |   2 > 0.904523
|   |   |   |   |   |   |   |   |   |   |   |   |   |   |   |   3 <= -0.949512: Firat (4.0)
|   |   |   |   |   |   |   |   |   |   |   |   |   |   |   |   3 > -0.949512: Kamuran (4.0)
|   |   |   |   |   |   |   |   |   |   |   |   15 > 0.731832
|   |   |   |   |   |   |   |   |   |   |   |   |   44 <= -0.987984: Marvin (6.0/1.0)
|   |   |   |   |   |   |   |   |   |   |   |   |   44 > -0.987984
|   |   |   |   |   |   |   |   |   |   |   |   |   |   19 <= -0.562973: Kamuran (2.0)
|   |   |   |   |   |   |   |   |   |   |   |   |   |   19 > -0.562973: Firat (16.0/1.0)
|   |   |   |   |   |   |   |   14 > -0.488615
|   |   |   |   |   |   |   |   |   17 <= 0.517292: Kamuran (2446.0/84.0)
|   |   |   |   |   |   |   |   |   17 > 0.517292
|   |   |   |   |   |   |   |   |   |   6 <= 0.763185
|   |   |   |   |   |   |   |   |   |   |   18 <= -0.111881
|   |   |   |   |   |   |   |   |   |   |   |   56 <= 0.88336: Kamuran (6.0)
|   |   |   |   |   |   |   |   |   |   |   |   56 > 0.88336
|   |   |   |   |   |   |   |   |   |   |   |   |   5 <= 0.771907: Firat (17.0/6.0)
|   |   |   |   |   |   |   |   |   |   |   |   |   5 > 0.771907: Marvin (3.0/1.0)
|   |   |   |   |   |   |   |   |   |   |   18 > -0.111881: Kamuran (142.0/11.0)
|   |   |   |   |   |   |   |   |   |   6 > 0.763185
|   |   |   |   |   |   |   |   |   |   |   8 <= 0.838053
|   |   |   |   |   |   |   |   |   |   |   |   19 <= 0.718448: Marvin (10.0/5.0)
|   |   |   |   |   |   |   |   |   |   |   |   19 > 0.718448: Firat (22.0)
|   |   |   |   |   |   |   |   |   |   |   8 > 0.838053: Kamuran (4.0)
|   |   |   |   |   16 > -2.214081
|   |   |   |   |   |   14 <= 2.055534
|   |   |   |   |   |   |   14 <= -2.298892
|   |   |   |   |   |   |   |   11 <= 0.639595
|   |   |   |   |   |   |   |   |   10 <= 2.751489
|   |   |   |   |   |   |   |   |   |   12 <= 1.984787
|   |   |   |   |   |   |   |   |   |   |   0 <= -1.697989
|   |   |   |   |   |   |   |   |   |   |   |   7 <= 0.29221
|   |   |   |   |   |   |   |   |   |   |   |   |   1 <= 1.763228
|   |   |   |   |   |   |   |   |   |   |   |   |   |   2 <= -0.102628
|   |   |   |   |   |   |   |   |   |   |   |   |   |   |   59 <= 0.187043
|   |   |   |   |   |   |   |   |   |   |   |   |   |   |   |   14 <= -2.420877
|   |   |   |   |   |   |   |   |   |   |   |   |   |   |   |   |   28 <= 0.751853: Kamuran (8.0)
|   |   |   |   |   |   |   |   |   |   |   |   |   |   |   |   |   28 > 0.751853: Firat (2.0)
|   |   |   |   |   |   |   |   |   |   |   |   |   |   |   |   14 > -2.420877: Marvin (2.0)
|   |   |   |   |   |   |   |   |   |   |   |   |   |   |   59 > 0.187043: Marvin (9.0/1.0)
|   |   |   |   |   |   |   |   |   |   |   |   |   |   2 > -0.102628: Marvin (33.0)
|   |   |   |   |   |   |   |   |   |   |   |   |   1 > 1.763228
|   |   |   |   |   |   |   |   |   |   |   |   |   |   25 <= -0.460939: Marvin (3.0)
|   |   |   |   |   |   |   |   |   |   |   |   |   |   25 > -0.460939: Firat (7.0)
|   |   |   |   |   |   |   |   |   |   |   |   7 > 0.29221
|   |   |   |   |   |   |   |   |   |   |   |   |   9 <= 0.946565
|   |   |   |   |   |   |   |   |   |   |   |   |   |   40 <= 2.631921: Kamuran (24.0)
|   |   |   |   |   |   |   |   |   |   |   |   |   |   40 > 2.631921: Marvin (2.0)
|   |   |   |   |   |   |   |   |   |   |   |   |   9 > 0.946565: Marvin (3.0)
|   |   |   |   |   |   |   |   |   |   |   0 > -1.697989
|   |   |   |   |   |   |   |   |   |   |   |   1 <= 1.221949
|   |   |   |   |   |   |   |   |   |   |   |   |   13 <= -0.005854
|   |   |   |   |   |   |   |   |   |   |   |   |   |   4 <= 0.820004
|   |   |   |   |   |   |   |   |   |   |   |   |   |   |   58 <= 1.632424
|   |   |   |   |   |   |   |   |   |   |   |   |   |   |   |   5 <= 0.756483
|   |   |   |   |   |   |   |   |   |   |   |   |   |   |   |   |   26 <= 2.332888
|   |   |   |   |   |   |   |   |   |   |   |   |   |   |   |   |   |   19 <= 0.22845
|   |   |   |   |   |   |   |   |   |   |   |   |   |   |   |   |   |   |   15 <= 0.405846
|   |   |   |   |   |   |   |   |   |   |   |   |   |   |   |   |   |   |   |   34 <= 1.324398
|   |   |   |   |   |   |   |   |   |   |   |   |   |   |   |   |   |   |   |   |   53 <= -0.825709
|   |   |   |   |   |   |   |   |   |   |   |   |   |   |   |   |   |   |   |   |   |   2 <= -1.065558: Firat (2.0/1.0)
|   |   |   |   |   |   |   |   |   |   |   |   |   |   |   |   |   |   |   |   |   |   2 > -1.065558: Kamuran (7.0)
|   |   |   |   |   |   |   |   |   |   |   |   |   |   |   |   |   |   |   |   |   53 > -0.825709
|   |   |   |   |   |   |   |   |   |   |   |   |   |   |   |   |   |   |   |   |   |   0 <= -0.70948
|   |   |   |   |   |   |   |   |   |   |   |   |   |   |   |   |   |   |   |   |   |   |   6 <= -0.941449: Kamuran (2.0)
|   |   |   |   |   |   |   |   |   |   |   |   |   |   |   |   |   |   |   |   |   |   |   6 > -0.941449: Marvin (8.0)
|   |   |   |   |   |   |   |   |   |   |   |   |   |   |   |   |   |   |   |   |   |   0 > -0.70948
|   |   |   |   |   |   |   |   |   |   |   |   |   |   |   |   |   |   |   |   |   |   |   13 <= -1.22152
|   |   |   |   |   |   |   |   |   |   |   |   |   |   |   |   |   |   |   |   |   |   |   |   11 <= -0.557912: Firat (6.0)
|   |   |   |   |   |   |   |   |   |   |   |   |   |   |   |   |   |   |   |   |   |   |   |   11 > -0.557912: Kamuran (5.0/1.0)
|   |   |   |   |   |   |   |   |   |   |   |   |   |   |   |   |   |   |   |   |   |   |   13 > -1.22152
|   |   |   |   |   |   |   |   |   |   |   |   |   |   |   |   |   |   |   |   |   |   |   |   42 <= 1.170523
|   |   |   |   |   |   |   |   |   |   |   |   |   |   |   |   |   |   |   |   |   |   |   |   |   19 <= 0.119917
|   |   |   |   |   |   |   |   |   |   |   |   |   |   |   |   |   |   |   |   |   |   |   |   |   |   41 <= -0.789583: Marvin (5.0)
|   |   |   |   |   |   |   |   |   |   |   |   |   |   |   |   |   |   |   |   |   |   |   |   |   |   41 > -0.789583
|   |   |   |   |   |   |   |   |   |   |   |   |   |   |   |   |   |   |   |   |   |   |   |   |   |   |   3 <= -0.041829
|   |   |   |   |   |   |   |   |   |   |   |   |   |   |   |   |   |   |   |   |   |   |   |   |   |   |   |   37 <= 0.099408: Firat (11.0/1.0)
|   |   |   |   |   |   |   |   |   |   |   |   |   |   |   |   |   |   |   |   |   |   |   |   |   |   |   |   37 > 0.099408: Marvin (11.0/1.0)
|   |   |   |   |   |   |   |   |   |   |   |   |   |   |   |   |   |   |   |   |   |   |   |   |   |   |   3 > -0.041829: Firat (13.0)
|   |   |   |   |   |   |   |   |   |   |   |   |   |   |   |   |   |   |   |   |   |   |   |   |   19 > 0.119917
|   |   |   |   |   |   |   |   |   |   |   |   |   |   |   |   |   |   |   |   |   |   |   |   |   |   36 <= -0.790532: Kamuran (2.0)
|   |   |   |   |   |   |   |   |   |   |   |   |   |   |   |   |   |   |   |   |   |   |   |   |   |   36 > -0.790532: Marvin (6.0)
|   |   |   |   |   |   |   |   |   |   |   |   |   |   |   |   |   |   |   |   |   |   |   |   42 > 1.170523: Kamuran (2.0)
|   |   |   |   |   |   |   |   |   |   |   |   |   |   |   |   |   |   |   |   34 > 1.324398
|   |   |   |   |   |   |   |   |   |   |   |   |   |   |   |   |   |   |   |   |   0 <= 0.960153: Kamuran (8.0)
|   |   |   |   |   |   |   |   |   |   |   |   |   |   |   |   |   |   |   |   |   0 > 0.960153: Firat (3.0)
|   |   |   |   |   |   |   |   |   |   |   |   |   |   |   |   |   |   |   15 > 0.405846
|   |   |   |   |   |   |   |   |   |   |   |   |   |   |   |   |   |   |   |   2 <= 1.556454
|   |   |   |   |   |   |   |   |   |   |   |   |   |   |   |   |   |   |   |   |   40 <= -0.906351
|   |   |   |   |   |   |   |   |   |   |   |   |   |   |   |   |   |   |   |   |   |   19 <= -0.090968: Marvin (6.0/1.0)
|   |   |   |   |   |   |   |   |   |   |   |   |   |   |   |   |   |   |   |   |   |   19 > -0.090968: Firat (6.0)
|   |   |   |   |   |   |   |   |   |   |   |   |   |   |   |   |   |   |   |   |   40 > -0.906351
|   |   |   |   |   |   |   |   |   |   |   |   |   |   |   |   |   |   |   |   |   |   2 <= -0.74101: Kamuran (2.0)
|   |   |   |   |   |   |   |   |   |   |   |   |   |   |   |   |   |   |   |   |   |   2 > -0.74101: Marvin (39.0/1.0)
|   |   |   |   |   |   |   |   |   |   |   |   |   |   |   |   |   |   |   |   2 > 1.556454: Firat (8.0/1.0)
|   |   |   |   |   |   |   |   |   |   |   |   |   |   |   |   |   |   19 > 0.22845
|   |   |   |   |   |   |   |   |   |   |   |   |   |   |   |   |   |   |   3 <= 0.673854
|   |   |   |   |   |   |   |   |   |   |   |   |   |   |   |   |   |   |   |   18 <= -1.346927
|   |   |   |   |   |   |   |   |   |   |   |   |   |   |   |   |   |   |   |   |   49 <= -0.041457: Kamuran (5.0)
|   |   |   |   |   |   |   |   |   |   |   |   |   |   |   |   |   |   |   |   |   49 > -0.041457: Marvin (6.0/2.0)
|   |   |   |   |   |   |   |   |   |   |   |   |   |   |   |   |   |   |   |   18 > -1.346927: Firat (186.0/49.0)
|   |   |   |   |   |   |   |   |   |   |   |   |   |   |   |   |   |   |   3 > 0.673854: Marvin (7.0)
|   |   |   |   |   |   |   |   |   |   |   |   |   |   |   |   |   26 > 2.332888: Marvin (14.0)
|   |   |   |   |   |   |   |   |   |   |   |   |   |   |   |   5 > 0.756483
|   |   |   |   |   |   |   |   |   |   |   |   |   |   |   |   |   58 <= -1.232179: Firat (8.0/1.0)
|   |   |   |   |   |   |   |   |   |   |   |   |   |   |   |   |   58 > -1.232179
|   |   |   |   |   |   |   |   |   |   |   |   |   |   |   |   |   |   59 <= 0.279533
|   |   |   |   |   |   |   |   |   |   |   |   |   |   |   |   |   |   |   17 <= -0.486535: Marvin (3.0/1.0)
|   |   |   |   |   |   |   |   |   |   |   |   |   |   |   |   |   |   |   17 > -0.486535: Kamuran (18.0)
|   |   |   |   |   |   |   |   |   |   |   |   |   |   |   |   |   |   59 > 0.279533
|   |   |   |   |   |   |   |   |   |   |   |   |   |   |   |   |   |   |   51 <= 0.591854
|   |   |   |   |   |   |   |   |   |   |   |   |   |   |   |   |   |   |   |   32 <= -0.239647: Kamuran (3.0)
|   |   |   |   |   |   |   |   |   |   |   |   |   |   |   |   |   |   |   |   32 > -0.239647: Marvin (5.0)
|   |   |   |   |   |   |   |   |   |   |   |   |   |   |   |   |   |   |   51 > 0.591854: Firat (4.0)
|   |   |   |   |   |   |   |   |   |   |   |   |   |   |   58 > 1.632424
|   |   |   |   |   |   |   |   |   |   |   |   |   |   |   |   3 <= -0.827258: Marvin (4.0/1.0)
|   |   |   |   |   |   |   |   |   |   |   |   |   |   |   |   3 > -0.827258
|   |   |   |   |   |   |   |   |   |   |   |   |   |   |   |   |   9 <= -0.175777: Marvin (2.0)
|   |   |   |   |   |   |   |   |   |   |   |   |   |   |   |   |   9 > -0.175777: Kamuran (12.0)
|   |   |   |   |   |   |   |   |   |   |   |   |   |   4 > 0.820004
|   |   |   |   |   |   |   |   |   |   |   |   |   |   |   2 <= -1.256007
|   |   |   |   |   |   |   |   |   |   |   |   |   |   |   |   49 <= -0.003489: Marvin (6.0)
|   |   |   |   |   |   |   |   |   |   |   |   |   |   |   |   49 > -0.003489: Firat (4.0)
|   |   |   |   |   |   |   |   |   |   |   |   |   |   |   2 > -1.256007
|   |   |   |   |   |   |   |   |   |   |   |   |   |   |   |   0 <= 0.158465
|   |   |   |   |   |   |   |   |   |   |   |   |   |   |   |   |   39 <= 1.561709
|   |   |   |   |   |   |   |   |   |   |   |   |   |   |   |   |   |   36 <= 1.265188: Kamuran (29.0)
|   |   |   |   |   |   |   |   |   |   |   |   |   |   |   |   |   |   36 > 1.265188: Firat (2.0/1.0)
|   |   |   |   |   |   |   |   |   |   |   |   |   |   |   |   |   39 > 1.561709: Marvin (3.0/1.0)
|   |   |   |   |   |   |   |   |   |   |   |   |   |   |   |   0 > 0.158465: Firat (7.0/1.0)
|   |   |   |   |   |   |   |   |   |   |   |   |   13 > -0.005854
|   |   |   |   |   |   |   |   |   |   |   |   |   |   4 <= 1.279716
|   |   |   |   |   |   |   |   |   |   |   |   |   |   |   5 <= -1.406322
|   |   |   |   |   |   |   |   |   |   |   |   |   |   |   |   9 <= -1.538404
|   |   |   |   |   |   |   |   |   |   |   |   |   |   |   |   |   1 <= -0.987551: Firat (5.0/1.0)
|   |   |   |   |   |   |   |   |   |   |   |   |   |   |   |   |   1 > -0.987551: Marvin (15.0)
|   |   |   |   |   |   |   |   |   |   |   |   |   |   |   |   9 > -1.538404
|   |   |   |   |   |   |   |   |   |   |   |   |   |   |   |   |   46 <= -1.505902: Marvin (10.0/1.0)
|   |   |   |   |   |   |   |   |   |   |   |   |   |   |   |   |   46 > -1.505902: Firat (120.0/23.0)
|   |   |   |   |   |   |   |   |   |   |   |   |   |   |   5 > -1.406322
|   |   |   |   |   |   |   |   |   |   |   |   |   |   |   |   2 <= -0.089807
|   |   |   |   |   |   |   |   |   |   |   |   |   |   |   |   |   19 <= -0.264318
|   |   |   |   |   |   |   |   |   |   |   |   |   |   |   |   |   |   25 <= -2.058235: Kamuran (3.0/2.0)
|   |   |   |   |   |   |   |   |   |   |   |   |   |   |   |   |   |   25 > -2.058235
|   |   |   |   |   |   |   |   |   |   |   |   |   |   |   |   |   |   |   6 <= 1.368561
|   |   |   |   |   |   |   |   |   |   |   |   |   |   |   |   |   |   |   |   43 <= -1.145085: Marvin (5.0/2.0)
|   |   |   |   |   |   |   |   |   |   |   |   |   |   |   |   |   |   |   |   43 > -1.145085: Marvin (47.0)
|   |   |   |   |   |   |   |   |   |   |   |   |   |   |   |   |   |   |   6 > 1.368561: Firat (2.0)
|   |   |   |   |   |   |   |   |   |   |   |   |   |   |   |   |   19 > -0.264318
|   |   |   |   |   |   |   |   |   |   |   |   |   |   |   |   |   |   0 <= 1.283796
|   |   |   |   |   |   |   |   |   |   |   |   |   |   |   |   |   |   |   27 <= -1.966701: Marvin (8.0/1.0)
|   |   |   |   |   |   |   |   |   |   |   |   |   |   |   |   |   |   |   27 > -1.966701: Firat (178.0/45.0)
|   |   |   |   |   |   |   |   |   |   |   |   |   |   |   |   |   |   0 > 1.283796
|   |   |   |   |   |   |   |   |   |   |   |   |   |   |   |   |   |   |   1 <= 0.229541: Marvin (8.0)
|   |   |   |   |   |   |   |   |   |   |   |   |   |   |   |   |   |   |   1 > 0.229541: Kamuran (2.0)
|   |   |   |   |   |   |   |   |   |   |   |   |   |   |   |   2 > -0.089807
|   |   |   |   |   |   |   |   |   |   |   |   |   |   |   |   |   2 <= 1.813204: Marvin (508.0/135.0)
|   |   |   |   |   |   |   |   |   |   |   |   |   |   |   |   |   2 > 1.813204
|   |   |   |   |   |   |   |   |   |   |   |   |   |   |   |   |   |   42 <= -1.611053
|   |   |   |   |   |   |   |   |   |   |   |   |   |   |   |   |   |   |   2 <= 2.557483
|   |   |   |   |   |   |   |   |   |   |   |   |   |   |   |   |   |   |   |   13 <= 1.235527: Firat (7.0/2.0)
|   |   |   |   |   |   |   |   |   |   |   |   |   |   |   |   |   |   |   |   13 > 1.235527: Marvin (11.0)
|   |   |   |   |   |   |   |   |   |   |   |   |   |   |   |   |   |   |   2 > 2.557483: Firat (4.0)
|   |   |   |   |   |   |   |   |   |   |   |   |   |   |   |   |   |   42 > -1.611053: Firat (20.0/1.0)
|   |   |   |   |   |   |   |   |   |   |   |   |   |   4 > 1.279716
|   |   |   |   |   |   |   |   |   |   |   |   |   |   |   28 <= -0.65818: Kamuran (3.0)
|   |   |   |   |   |   |   |   |   |   |   |   |   |   |   28 > -0.65818
|   |   |   |   |   |   |   |   |   |   |   |   |   |   |   |   0 <= -0.533447: Kamuran (3.0/1.0)
|   |   |   |   |   |   |   |   |   |   |   |   |   |   |   |   0 > -0.533447: Marvin (21.0)
|   |   |   |   |   |   |   |   |   |   |   |   1 > 1.221949
|   |   |   |   |   |   |   |   |   |   |   |   |   3 <= -0.398674
|   |   |   |   |   |   |   |   |   |   |   |   |   |   8 <= 0.745383: Firat (117.0/11.0)
|   |   |   |   |   |   |   |   |   |   |   |   |   |   8 > 0.745383
|   |   |   |   |   |   |   |   |   |   |   |   |   |   |   6 <= -0.428116: Firat (3.0/1.0)
|   |   |   |   |   |   |   |   |   |   |   |   |   |   |   6 > -0.428116: Kamuran (8.0)
|   |   |   |   |   |   |   |   |   |   |   |   |   3 > -0.398674
|   |   |   |   |   |   |   |   |   |   |   |   |   |   4 <= 1.070298
|   |   |   |   |   |   |   |   |   |   |   |   |   |   |   5 <= -0.759306
|   |   |   |   |   |   |   |   |   |   |   |   |   |   |   |   15 <= -1.058364: Marvin (3.0)
|   |   |   |   |   |   |   |   |   |   |   |   |   |   |   |   15 > -1.058364: Firat (9.0/1.0)
|   |   |   |   |   |   |   |   |   |   |   |   |   |   |   5 > -0.759306: Marvin (12.0)
|   |   |   |   |   |   |   |   |   |   |   |   |   |   4 > 1.070298: Kamuran (9.0/1.0)
|   |   |   |   |   |   |   |   |   |   12 > 1.984787
|   |   |   |   |   |   |   |   |   |   |   11 <= -0.533513
|   |   |   |   |   |   |   |   |   |   |   |   21 <= 0.292955
|   |   |   |   |   |   |   |   |   |   |   |   |   13 <= 0.475392: Firat (9.0)
|   |   |   |   |   |   |   |   |   |   |   |   |   13 > 0.475392: Marvin (2.0)
|   |   |   |   |   |   |   |   |   |   |   |   21 > 0.292955: Marvin (11.0)
|   |   |   |   |   |   |   |   |   |   |   11 > -0.533513
|   |   |   |   |   |   |   |   |   |   |   |   2 <= -2.979966: Firat (5.0)
|   |   |   |   |   |   |   |   |   |   |   |   2 > -2.979966
|   |   |   |   |   |   |   |   |   |   |   |   |   15 <= -0.556939
|   |   |   |   |   |   |   |   |   |   |   |   |   |   5 <= -1.542792: Firat (2.0)
|   |   |   |   |   |   |   |   |   |   |   |   |   |   5 > -1.542792: Kamuran (43.0/1.0)
|   |   |   |   |   |   |   |   |   |   |   |   |   15 > -0.556939
|   |   |   |   |   |   |   |   |   |   |   |   |   |   1 <= -0.462455
|   |   |   |   |   |   |   |   |   |   |   |   |   |   |   46 <= 0.123761: Firat (6.0)
|   |   |   |   |   |   |   |   |   |   |   |   |   |   |   46 > 0.123761: Marvin (4.0)
|   |   |   |   |   |   |   |   |   |   |   |   |   |   1 > -0.462455: Kamuran (5.0)
|   |   |   |   |   |   |   |   |   10 > 2.751489
|   |   |   |   |   |   |   |   |   |   0 <= 0.971082
|   |   |   |   |   |   |   |   |   |   |   13 <= -0.103671: Kamuran (28.0/1.0)
|   |   |   |   |   |   |   |   |   |   |   13 > -0.103671
|   |   |   |   |   |   |   |   |   |   |   |   29 <= 0.743449: Marvin (12.0)
|   |   |   |   |   |   |   |   |   |   |   |   29 > 0.743449: Kamuran (3.0)
|   |   |   |   |   |   |   |   |   |   0 > 0.971082: Firat (2.0)
|   |   |   |   |   |   |   |   11 > 0.639595
|   |   |   |   |   |   |   |   |   17 <= 0.243796
|   |   |   |   |   |   |   |   |   |   19 <= 0.219104
|   |   |   |   |   |   |   |   |   |   |   3 <= -1.390196: Firat (6.0/1.0)
|   |   |   |   |   |   |   |   |   |   |   3 > -1.390196: Marvin (146.0/27.0)
|   |   |   |   |   |   |   |   |   |   19 > 0.219104
|   |   |   |   |   |   |   |   |   |   |   9 <= -0.924963
|   |   |   |   |   |   |   |   |   |   |   |   15 <= -0.765859: Firat (10.0/2.0)
|   |   |   |   |   |   |   |   |   |   |   |   15 > -0.765859
|   |   |   |   |   |   |   |   |   |   |   |   |   6 <= 1.154187
|   |   |   |   |   |   |   |   |   |   |   |   |   |   17 <= -0.097759: Marvin (21.0/1.0)
|   |   |   |   |   |   |   |   |   |   |   |   |   |   17 > -0.097759: Firat (5.0/1.0)
|   |   |   |   |   |   |   |   |   |   |   |   |   6 > 1.154187: Firat (4.0)
|   |   |   |   |   |   |   |   |   |   |   9 > -0.924963
|   |   |   |   |   |   |   |   |   |   |   |   2 <= 1.335271
|   |   |   |   |   |   |   |   |   |   |   |   |   13 <= -0.574833
|   |   |   |   |   |   |   |   |   |   |   |   |   |   16 <= 0.241033
|   |   |   |   |   |   |   |   |   |   |   |   |   |   |   31 <= 0.448852
|   |   |   |   |   |   |   |   |   |   |   |   |   |   |   |   8 <= 1.263107: Firat (9.0)
|   |   |   |   |   |   |   |   |   |   |   |   |   |   |   |   8 > 1.263107: Kamuran (2.0)
|   |   |   |   |   |   |   |   |   |   |   |   |   |   |   31 > 0.448852: Kamuran (4.0/1.0)
|   |   |   |   |   |   |   |   |   |   |   |   |   |   16 > 0.241033
|   |   |   |   |   |   |   |   |   |   |   |   |   |   |   12 <= -1.830816: Kamuran (4.0/2.0)
|   |   |   |   |   |   |   |   |   |   |   |   |   |   |   12 > -1.830816: Kamuran (89.0)
|   |   |   |   |   |   |   |   |   |   |   |   |   13 > -0.574833
|   |   |   |   |   |   |   |   |   |   |   |   |   |   12 <= 1.445187
|   |   |   |   |   |   |   |   |   |   |   |   |   |   |   2 <= 0.456301
|   |   |   |   |   |   |   |   |   |   |   |   |   |   |   |   20 <= -1.550702: Kamuran (3.0)
|   |   |   |   |   |   |   |   |   |   |   |   |   |   |   |   20 > -1.550702
|   |   |   |   |   |   |   |   |   |   |   |   |   |   |   |   |   47 <= 2.154894: Firat (81.0/6.0)
|   |   |   |   |   |   |   |   |   |   |   |   |   |   |   |   |   47 > 2.154894: Kamuran (4.0/2.0)
|   |   |   |   |   |   |   |   |   |   |   |   |   |   |   2 > 0.456301
|   |   |   |   |   |   |   |   |   |   |   |   |   |   |   |   15 <= 0.348616
|   |   |   |   |   |   |   |   |   |   |   |   |   |   |   |   |   1 <= 0.900861: Kamuran (12.0)
|   |   |   |   |   |   |   |   |   |   |   |   |   |   |   |   |   1 > 0.900861: Firat (6.0/2.0)
|   |   |   |   |   |   |   |   |   |   |   |   |   |   |   |   15 > 0.348616: Marvin (4.0/1.0)
|   |   |   |   |   |   |   |   |   |   |   |   |   |   12 > 1.445187: Kamuran (22.0/1.0)
|   |   |   |   |   |   |   |   |   |   |   |   2 > 1.335271
|   |   |   |   |   |   |   |   |   |   |   |   |   6 <= -0.295856: Kamuran (2.0)
|   |   |   |   |   |   |   |   |   |   |   |   |   6 > -0.295856: Marvin (7.0)
|   |   |   |   |   |   |   |   |   17 > 0.243796
|   |   |   |   |   |   |   |   |   |   6 <= 1.587454
|   |   |   |   |   |   |   |   |   |   |   19 <= 0.007472
|   |   |   |   |   |   |   |   |   |   |   |   13 <= 0.390459
|   |   |   |   |   |   |   |   |   |   |   |   |   15 <= 0.167083
|   |   |   |   |   |   |   |   |   |   |   |   |   |   16 <= -1.04297: Marvin (5.0/1.0)
|   |   |   |   |   |   |   |   |   |   |   |   |   |   16 > -1.04297
|   |   |   |   |   |   |   |   |   |   |   |   |   |   |   9 <= -0.961242: Marvin (4.0/1.0)
|   |   |   |   |   |   |   |   |   |   |   |   |   |   |   9 > -0.961242: Kamuran (116.0/8.0)
|   |   |   |   |   |   |   |   |   |   |   |   |   15 > 0.167083
|   |   |   |   |   |   |   |   |   |   |   |   |   |   42 <= 0.909187: Marvin (19.0/4.0)
|   |   |   |   |   |   |   |   |   |   |   |   |   |   42 > 0.909187: Kamuran (4.0/1.0)
|   |   |   |   |   |   |   |   |   |   |   |   13 > 0.390459
|   |   |   |   |   |   |   |   |   |   |   |   |   9 <= 1.437451
|   |   |   |   |   |   |   |   |   |   |   |   |   |   10 <= 1.023755
|   |   |   |   |   |   |   |   |   |   |   |   |   |   |   15 <= -1.671776: Firat (3.0/1.0)
|   |   |   |   |   |   |   |   |   |   |   |   |   |   |   15 > -1.671776
|   |   |   |   |   |   |   |   |   |   |   |   |   |   |   |   1 <= 1.920818: Marvin (47.0/3.0)
|   |   |   |   |   |   |   |   |   |   |   |   |   |   |   |   1 > 1.920818: Kamuran (2.0)
|   |   |   |   |   |   |   |   |   |   |   |   |   |   10 > 1.023755
|   |   |   |   |   |   |   |   |   |   |   |   |   |   |   3 <= 0.058911: Kamuran (7.0)
|   |   |   |   |   |   |   |   |   |   |   |   |   |   |   3 > 0.058911: Marvin (2.0)
|   |   |   |   |   |   |   |   |   |   |   |   |   9 > 1.437451: Firat (4.0)
|   |   |   |   |   |   |   |   |   |   |   19 > 0.007472
|   |   |   |   |   |   |   |   |   |   |   |   15 <= -0.319261: Kamuran (1865.0/50.0)
|   |   |   |   |   |   |   |   |   |   |   |   15 > -0.319261
|   |   |   |   |   |   |   |   |   |   |   |   |   13 <= -0.434159
|   |   |   |   |   |   |   |   |   |   |   |   |   |   20 <= -1.939838: Marvin (6.0/2.0)
|   |   |   |   |   |   |   |   |   |   |   |   |   |   20 > -1.939838: Kamuran (169.0/7.0)
|   |   |   |   |   |   |   |   |   |   |   |   |   13 > -0.434159
|   |   |   |   |   |   |   |   |   |   |   |   |   |   3 <= 0.356931
|   |   |   |   |   |   |   |   |   |   |   |   |   |   |   4 <= 0.962998
|   |   |   |   |   |   |   |   |   |   |   |   |   |   |   |   19 <= 1.36749
|   |   |   |   |   |   |   |   |   |   |   |   |   |   |   |   |   39 <= 0.445569
|   |   |   |   |   |   |   |   |   |   |   |   |   |   |   |   |   |   23 <= 0.644227
|   |   |   |   |   |   |   |   |   |   |   |   |   |   |   |   |   |   |   47 <= -1.326752: Kamuran (4.0)
|   |   |   |   |   |   |   |   |   |   |   |   |   |   |   |   |   |   |   47 > -1.326752: Firat (31.0/1.0)
|   |   |   |   |   |   |   |   |   |   |   |   |   |   |   |   |   |   23 > 0.644227: Kamuran (5.0)
|   |   |   |   |   |   |   |   |   |   |   |   |   |   |   |   |   39 > 0.445569: Kamuran (8.0/1.0)
|   |   |   |   |   |   |   |   |   |   |   |   |   |   |   |   19 > 1.36749: Marvin (2.0)
|   |   |   |   |   |   |   |   |   |   |   |   |   |   |   4 > 0.962998: Kamuran (12.0/1.0)
|   |   |   |   |   |   |   |   |   |   |   |   |   |   3 > 0.356931
|   |   |   |   |   |   |   |   |   |   |   |   |   |   |   0 <= -2.412489: Kamuran (2.0)
|   |   |   |   |   |   |   |   |   |   |   |   |   |   |   0 > -2.412489
|   |   |   |   |   |   |   |   |   |   |   |   |   |   |   |   12 <= 0.704966
|   |   |   |   |   |   |   |   |   |   |   |   |   |   |   |   |   26 <= 0.422157: Marvin (18.0)
|   |   |   |   |   |   |   |   |   |   |   |   |   |   |   |   |   26 > 0.422157: Firat (4.0/2.0)
|   |   |   |   |   |   |   |   |   |   |   |   |   |   |   |   12 > 0.704966: Firat (7.0/1.0)
|   |   |   |   |   |   |   |   |   |   6 > 1.587454
|   |   |   |   |   |   |   |   |   |   |   13 <= -0.370185
|   |   |   |   |   |   |   |   |   |   |   |   37 <= 0.156391: Firat (4.0/1.0)
|   |   |   |   |   |   |   |   |   |   |   |   37 > 0.156391: Kamuran (12.0)
|   |   |   |   |   |   |   |   |   |   |   13 > -0.370185
|   |   |   |   |   |   |   |   |   |   |   |   59 <= -1.528818: Kamuran (2.0)
|   |   |   |   |   |   |   |   |   |   |   |   59 > -1.528818
|   |   |   |   |   |   |   |   |   |   |   |   |   15 <= 0.403914
|   |   |   |   |   |   |   |   |   |   |   |   |   |   38 <= 1.506675: Firat (18.0)
|   |   |   |   |   |   |   |   |   |   |   |   |   |   38 > 1.506675: Marvin (6.0/2.0)
|   |   |   |   |   |   |   |   |   |   |   |   |   15 > 0.403914: Marvin (6.0)
|   |   |   |   |   |   |   14 > -2.298892
|   |   |   |   |   |   |   |   6 <= -0.094815
|   |   |   |   |   |   |   |   |   1 <= -0.326098
|   |   |   |   |   |   |   |   |   |   0 <= -0.038418
|   |   |   |   |   |   |   |   |   |   |   6 <= -0.837729
|   |   |   |   |   |   |   |   |   |   |   |   59 <= 1.174369
|   |   |   |   |   |   |   |   |   |   |   |   |   7 <= -0.407462: Kamuran (3875.0/190.0)
|   |   |   |   |   |   |   |   |   |   |   |   |   7 > -0.407462
|   |   |   |   |   |   |   |   |   |   |   |   |   |   9 <= -1.134644
|   |   |   |   |   |   |   |   |   |   |   |   |   |   |   15 <= 0.183899
|   |   |   |   |   |   |   |   |   |   |   |   |   |   |   |   1 <= -1.431102
|   |   |   |   |   |   |   |   |   |   |   |   |   |   |   |   |   10 <= -1.808233: Kamuran (4.0)
|   |   |   |   |   |   |   |   |   |   |   |   |   |   |   |   |   10 > -1.808233: Firat (60.0/9.0)
|   |   |   |   |   |   |   |   |   |   |   |   |   |   |   |   1 > -1.431102
|   |   |   |   |   |   |   |   |   |   |   |   |   |   |   |   |   7 <= 1.213544
|   |   |   |   |   |   |   |   |   |   |   |   |   |   |   |   |   |   0 <= -0.764199
|   |   |   |   |   |   |   |   |   |   |   |   |   |   |   |   |   |   |   47 <= -1.050685: Marvin (2.0)
|   |   |   |   |   |   |   |   |   |   |   |   |   |   |   |   |   |   |   47 > -1.050685
|   |   |   |   |   |   |   |   |   |   |   |   |   |   |   |   |   |   |   |   45 <= 0.079865
|   |   |   |   |   |   |   |   |   |   |   |   |   |   |   |   |   |   |   |   |   18 <= 0.228693: Firat (7.0)
|   |   |   |   |   |   |   |   |   |   |   |   |   |   |   |   |   |   |   |   |   18 > 0.228693: Kamuran (4.0/1.0)
|   |   |   |   |   |   |   |   |   |   |   |   |   |   |   |   |   |   |   |   45 > 0.079865: Kamuran (14.0)
|   |   |   |   |   |   |   |   |   |   |   |   |   |   |   |   |   |   0 > -0.764199
|   |   |   |   |   |   |   |   |   |   |   |   |   |   |   |   |   |   |   34 <= 0.086821: Marvin (26.0/3.0)
|   |   |   |   |   |   |   |   |   |   |   |   |   |   |   |   |   |   |   34 > 0.086821
|   |   |   |   |   |   |   |   |   |   |   |   |   |   |   |   |   |   |   |   3 <= -0.453449
|   |   |   |   |   |   |   |   |   |   |   |   |   |   |   |   |   |   |   |   |   8 <= 0.347401: Firat (4.0)
|   |   |   |   |   |   |   |   |   |   |   |   |   |   |   |   |   |   |   |   |   8 > 0.347401: Marvin (5.0/1.0)
|   |   |   |   |   |   |   |   |   |   |   |   |   |   |   |   |   |   |   |   3 > -0.453449
|   |   |   |   |   |   |   |   |   |   |   |   |   |   |   |   |   |   |   |   |   12 <= 0.675511: Kamuran (7.0)
|   |   |   |   |   |   |   |   |   |   |   |   |   |   |   |   |   |   |   |   |   12 > 0.675511: Firat (2.0/1.0)
|   |   |   |   |   |   |   |   |   |   |   |   |   |   |   |   |   7 > 1.213544
|   |   |   |   |   |   |   |   |   |   |   |   |   |   |   |   |   |   19 <= 1.06228: Firat (7.0/1.0)
|   |   |   |   |   |   |   |   |   |   |   |   |   |   |   |   |   |   19 > 1.06228: Kamuran (13.0/1.0)
|   |   |   |   |   |   |   |   |   |   |   |   |   |   |   15 > 0.183899
|   |   |   |   |   |   |   |   |   |   |   |   |   |   |   |   14 <= 0.461406
|   |   |   |   |   |   |   |   |   |   |   |   |   |   |   |   |   52 <= -0.949248
|   |   |   |   |   |   |   |   |   |   |   |   |   |   |   |   |   |   2 <= 0.090875: Marvin (10.0)
|   |   |   |   |   |   |   |   |   |   |   |   |   |   |   |   |   |   2 > 0.090875: Firat (2.0)
|   |   |   |   |   |   |   |   |   |   |   |   |   |   |   |   |   52 > -0.949248
|   |   |   |   |   |   |   |   |   |   |   |   |   |   |   |   |   |   30 <= -1.293512: Firat (3.0/1.0)
|   |   |   |   |   |   |   |   |   |   |   |   |   |   |   |   |   |   30 > -1.293512
|   |   |   |   |   |   |   |   |   |   |   |   |   |   |   |   |   |   |   46 <= 0.07668: Marvin (5.0)
|   |   |   |   |   |   |   |   |   |   |   |   |   |   |   |   |   |   |   46 > 0.07668
|   |   |   |   |   |   |   |   |   |   |   |   |   |   |   |   |   |   |   |   1 <= -0.688224: Kamuran (22.0)
|   |   |   |   |   |   |   |   |   |   |   |   |   |   |   |   |   |   |   |   1 > -0.688224
|   |   |   |   |   |   |   |   |   |   |   |   |   |   |   |   |   |   |   |   |   37 <= -0.273962: Marvin (6.0)
|   |   |   |   |   |   |   |   |   |   |   |   |   |   |   |   |   |   |   |   |   37 > -0.273962: Kamuran (7.0/1.0)
|   |   |   |   |   |   |   |   |   |   |   |   |   |   |   |   14 > 0.461406
|   |   |   |   |   |   |   |   |   |   |   |   |   |   |   |   |   18 <= 0.943114: Kamuran (42.0)
|   |   |   |   |   |   |   |   |   |   |   |   |   |   |   |   |   18 > 0.943114: Kamuran (5.0/2.0)
|   |   |   |   |   |   |   |   |   |   |   |   |   |   9 > -1.134644
|   |   |   |   |   |   |   |   |   |   |   |   |   |   |   19 <= -0.206851
|   |   |   |   |   |   |   |   |   |   |   |   |   |   |   |   3 <= 0.57633
|   |   |   |   |   |   |   |   |   |   |   |   |   |   |   |   |   18 <= -1.6628: Marvin (8.0/1.0)
|   |   |   |   |   |   |   |   |   |   |   |   |   |   |   |   |   18 > -1.6628
|   |   |   |   |   |   |   |   |   |   |   |   |   |   |   |   |   |   42 <= -0.596694
|   |   |   |   |   |   |   |   |   |   |   |   |   |   |   |   |   |   |   29 <= -0.948982
|   |   |   |   |   |   |   |   |   |   |   |   |   |   |   |   |   |   |   |   4 <= -0.968589: Marvin (2.0)
|   |   |   |   |   |   |   |   |   |   |   |   |   |   |   |   |   |   |   |   4 > -0.968589: Kamuran (11.0)
|   |   |   |   |   |   |   |   |   |   |   |   |   |   |   |   |   |   |   29 > -0.948982
|   |   |   |   |   |   |   |   |   |   |   |   |   |   |   |   |   |   |   |   4 <= 0.513261
|   |   |   |   |   |   |   |   |   |   |   |   |   |   |   |   |   |   |   |   |   5 <= 0.596488
|   |   |   |   |   |   |   |   |   |   |   |   |   |   |   |   |   |   |   |   |   |   4 <= -1.352052: Marvin (3.0/1.0)
|   |   |   |   |   |   |   |   |   |   |   |   |   |   |   |   |   |   |   |   |   |   4 > -1.352052: Firat (13.0/1.0)
|   |   |   |   |   |   |   |   |   |   |   |   |   |   |   |   |   |   |   |   |   5 > 0.596488: Kamuran (7.0/2.0)
|   |   |   |   |   |   |   |   |   |   |   |   |   |   |   |   |   |   |   |   4 > 0.513261: Marvin (7.0)
|   |   |   |   |   |   |   |   |   |   |   |   |   |   |   |   |   |   42 > -0.596694: Kamuran (143.0/24.0)
|   |   |   |   |   |   |   |   |   |   |   |   |   |   |   |   3 > 0.57633
|   |   |   |   |   |   |   |   |   |   |   |   |   |   |   |   |   6 <= -2.324372: Firat (3.0/1.0)
|   |   |   |   |   |   |   |   |   |   |   |   |   |   |   |   |   6 > -2.324372
|   |   |   |   |   |   |   |   |   |   |   |   |   |   |   |   |   |   13 <= -1.389463: Kamuran (6.0)
|   |   |   |   |   |   |   |   |   |   |   |   |   |   |   |   |   |   13 > -1.389463
|   |   |   |   |   |   |   |   |   |   |   |   |   |   |   |   |   |   |   43 <= 0.041084
|   |   |   |   |   |   |   |   |   |   |   |   |   |   |   |   |   |   |   |   15 <= -1.047383: Kamuran (6.0)
|   |   |   |   |   |   |   |   |   |   |   |   |   |   |   |   |   |   |   |   15 > -1.047383
|   |   |   |   |   |   |   |   |   |   |   |   |   |   |   |   |   |   |   |   |   47 <= -1.291344: Kamuran (4.0)
|   |   |   |   |   |   |   |   |   |   |   |   |   |   |   |   |   |   |   |   |   47 > -1.291344
|   |   |   |   |   |   |   |   |   |   |   |   |   |   |   |   |   |   |   |   |   |   59 <= -0.718853: Kamuran (3.0)
|   |   |   |   |   |   |   |   |   |   |   |   |   |   |   |   |   |   |   |   |   |   59 > -0.718853: Marvin (27.0/2.0)
|   |   |   |   |   |   |   |   |   |   |   |   |   |   |   |   |   |   |   43 > 0.041084: Marvin (17.0)
|   |   |   |   |   |   |   |   |   |   |   |   |   |   |   19 > -0.206851
|   |   |   |   |   |   |   |   |   |   |   |   |   |   |   |   5 <= -1.073634
|   |   |   |   |   |   |   |   |   |   |   |   |   |   |   |   |   11 <= 0.465536
|   |   |   |   |   |   |   |   |   |   |   |   |   |   |   |   |   |   4 <= -0.23237
|   |   |   |   |   |   |   |   |   |   |   |   |   |   |   |   |   |   |   19 <= 0.946488
|   |   |   |   |   |   |   |   |   |   |   |   |   |   |   |   |   |   |   |   25 <= -0.878541: Firat (2.0)
|   |   |   |   |   |   |   |   |   |   |   |   |   |   |   |   |   |   |   |   25 > -0.878541: Kamuran (9.0/2.0)
|   |   |   |   |   |   |   |   |   |   |   |   |   |   |   |   |   |   |   19 > 0.946488
|   |   |   |   |   |   |   |   |   |   |   |   |   |   |   |   |   |   |   |   3 <= 0.319926: Firat (33.0)
|   |   |   |   |   |   |   |   |   |   |   |   |   |   |   |   |   |   |   |   3 > 0.319926: Firat (6.0/3.0)
|   |   |   |   |   |   |   |   |   |   |   |   |   |   |   |   |   |   4 > -0.23237
|   |   |   |   |   |   |   |   |   |   |   |   |   |   |   |   |   |   |   34 <= -0.542475: Firat (3.0/1.0)
|   |   |   |   |   |   |   |   |   |   |   |   |   |   |   |   |   |   |   34 > -0.542475: Kamuran (18.0)
|   |   |   |   |   |   |   |   |   |   |   |   |   |   |   |   |   11 > 0.465536
|   |   |   |   |   |   |   |   |   |   |   |   |   |   |   |   |   |   48 <= -2.029082: Firat (5.0/1.0)
|   |   |   |   |   |   |   |   |   |   |   |   |   |   |   |   |   |   48 > -2.029082
|   |   |   |   |   |   |   |   |   |   |   |   |   |   |   |   |   |   |   10 <= -0.831841
|   |   |   |   |   |   |   |   |   |   |   |   |   |   |   |   |   |   |   |   13 <= 0.533346: Firat (5.0)
|   |   |   |   |   |   |   |   |   |   |   |   |   |   |   |   |   |   |   |   13 > 0.533346: Kamuran (5.0)
|   |   |   |   |   |   |   |   |   |   |   |   |   |   |   |   |   |   |   10 > -0.831841
|   |   |   |   |   |   |   |   |   |   |   |   |   |   |   |   |   |   |   |   12 <= -0.546063: Kamuran (7.0/2.0)
|   |   |   |   |   |   |   |   |   |   |   |   |   |   |   |   |   |   |   |   12 > -0.546063: Kamuran (92.0)
|   |   |   |   |   |   |   |   |   |   |   |   |   |   |   |   5 > -1.073634: Kamuran (1482.0/174.0)
|   |   |   |   |   |   |   |   |   |   |   |   59 > 1.174369
|   |   |   |   |   |   |   |   |   |   |   |   |   7 <= 1.502245
|   |   |   |   |   |   |   |   |   |   |   |   |   |   41 <= 2.231106
|   |   |   |   |   |   |   |   |   |   |   |   |   |   |   10 <= -1.053914
|   |   |   |   |   |   |   |   |   |   |   |   |   |   |   |   36 <= 0.440544: Marvin (14.0/1.0)
|   |   |   |   |   |   |   |   |   |   |   |   |   |   |   |   36 > 0.440544: Kamuran (4.0)
|   |   |   |   |   |   |   |   |   |   |   |   |   |   |   10 > -1.053914
|   |   |   |   |   |   |   |   |   |   |   |   |   |   |   |   55 <= -1.743403: Marvin (7.0/1.0)
|   |   |   |   |   |   |   |   |   |   |   |   |   |   |   |   55 > -1.743403: Kamuran (150.0/30.0)
|   |   |   |   |   |   |   |   |   |   |   |   |   |   41 > 2.231106
|   |   |   |   |   |   |   |   |   |   |   |   |   |   |   29 <= -0.393637: Firat (5.0/1.0)
|   |   |   |   |   |   |   |   |   |   |   |   |   |   |   29 > -0.393637
|   |   |   |   |   |   |   |   |   |   |   |   |   |   |   |   21 <= 1.422057: Marvin (11.0/1.0)
|   |   |   |   |   |   |   |   |   |   |   |   |   |   |   |   21 > 1.422057: Kamuran (3.0/1.0)
|   |   |   |   |   |   |   |   |   |   |   |   |   7 > 1.502245: Marvin (10.0)
|   |   |   |   |   |   |   |   |   |   |   6 > -0.837729
|   |   |   |   |   |   |   |   |   |   |   |   2 <= -1.962981
|   |   |   |   |   |   |   |   |   |   |   |   |   4 <= 0.468105
|   |   |   |   |   |   |   |   |   |   |   |   |   |   7 <= 0.810284: Kamuran (137.0/24.0)
|   |   |   |   |   |   |   |   |   |   |   |   |   |   7 > 0.810284
|   |   |   |   |   |   |   |   |   |   |   |   |   |   |   10 <= 1.578713
|   |   |   |   |   |   |   |   |   |   |   |   |   |   |   |   31 <= 0.892166
|   |   |   |   |   |   |   |   |   |   |   |   |   |   |   |   |   49 <= -0.662839: Kamuran (3.0)
|   |   |   |   |   |   |   |   |   |   |   |   |   |   |   |   |   49 > -0.662839: Firat (22.0/2.0)
|   |   |   |   |   |   |   |   |   |   |   |   |   |   |   |   31 > 0.892166: Marvin (3.0)
|   |   |   |   |   |   |   |   |   |   |   |   |   |   |   10 > 1.578713: Kamuran (7.0)
|   |   |   |   |   |   |   |   |   |   |   |   |   4 > 0.468105
|   |   |   |   |   |   |   |   |   |   |   |   |   |   8 <= 0.41702
|   |   |   |   |   |   |   |   |   |   |   |   |   |   |   39 <= 0.372542
|   |   |   |   |   |   |   |   |   |   |   |   |   |   |   |   39 <= -0.426562: Marvin (9.0)
|   |   |   |   |   |   |   |   |   |   |   |   |   |   |   |   39 > -0.426562
|   |   |   |   |   |   |   |   |   |   |   |   |   |   |   |   |   13 <= 0.505084
|   |   |   |   |   |   |   |   |   |   |   |   |   |   |   |   |   |   17 <= 1.322079
|   |   |   |   |   |   |   |   |   |   |   |   |   |   |   |   |   |   |   19 <= 0.385025: Marvin (5.0)
|   |   |   |   |   |   |   |   |   |   |   |   |   |   |   |   |   |   |   19 > 0.385025
|   |   |   |   |   |   |   |   |   |   |   |   |   |   |   |   |   |   |   |   47 <= -0.00839
|   |   |   |   |   |   |   |   |   |   |   |   |   |   |   |   |   |   |   |   |   59 <= 0.294537
|   |   |   |   |   |   |   |   |   |   |   |   |   |   |   |   |   |   |   |   |   |   30 <= -1.577168: Firat (6.0/2.0)
|   |   |   |   |   |   |   |   |   |   |   |   |   |   |   |   |   |   |   |   |   |   30 > -1.577168: Firat (51.0)
|   |   |   |   |   |   |   |   |   |   |   |   |   |   |   |   |   |   |   |   |   59 > 0.294537: Marvin (3.0)
|   |   |   |   |   |   |   |   |   |   |   |   |   |   |   |   |   |   |   |   47 > -0.00839
|   |   |   |   |   |   |   |   |   |   |   |   |   |   |   |   |   |   |   |   |   15 <= 0.208573
|   |   |   |   |   |   |   |   |   |   |   |   |   |   |   |   |   |   |   |   |   |   56 <= 0.558826
|   |   |   |   |   |   |   |   |   |   |   |   |   |   |   |   |   |   |   |   |   |   |   11 <= 1.905442: Firat (13.0)
|   |   |   |   |   |   |   |   |   |   |   |   |   |   |   |   |   |   |   |   |   |   |   11 > 1.905442: Marvin (2.0)
|   |   |   |   |   |   |   |   |   |   |   |   |   |   |   |   |   |   |   |   |   |   56 > 0.558826: Marvin (5.0/1.0)
|   |   |   |   |   |   |   |   |   |   |   |   |   |   |   |   |   |   |   |   |   15 > 0.208573: Marvin (7.0/1.0)
|   |   |   |   |   |   |   |   |   |   |   |   |   |   |   |   |   |   17 > 1.322079
|   |   |   |   |   |   |   |   |   |   |   |   |   |   |   |   |   |   |   0 <= -0.698587: Firat (4.0)
|   |   |   |   |   |   |   |   |   |   |   |   |   |   |   |   |   |   |   0 > -0.698587: Kamuran (5.0)
|   |   |   |   |   |   |   |   |   |   |   |   |   |   |   |   |   13 > 0.505084
|   |   |   |   |   |   |   |   |   |   |   |   |   |   |   |   |   |   3 <= 1.176006: Kamuran (7.0)
|   |   |   |   |   |   |   |   |   |   |   |   |   |   |   |   |   |   3 > 1.176006: Firat (3.0/1.0)
|   |   |   |   |   |   |   |   |   |   |   |   |   |   |   39 > 0.372542
|   |   |   |   |   |   |   |   |   |   |   |   |   |   |   |   13 <= -0.435974
|   |   |   |   |   |   |   |   |   |   |   |   |   |   |   |   |   3 <= -0.434833: Kamuran (2.0)
|   |   |   |   |   |   |   |   |   |   |   |   |   |   |   |   |   3 > -0.434833: Marvin (15.0)
|   |   |   |   |   |   |   |   |   |   |   |   |   |   |   |   13 > -0.435974: Kamuran (7.0)
|   |   |   |   |   |   |   |   |   |   |   |   |   |   8 > 0.41702: Marvin (69.0/7.0)
|   |   |   |   |   |   |   |   |   |   |   |   2 > -1.962981
|   |   |   |   |   |   |   |   |   |   |   |   |   16 <= 0.140511
|   |   |   |   |   |   |   |   |   |   |   |   |   |   13 <= 0.662222
|   |   |   |   |   |   |   |   |   |   |   |   |   |   |   4 <= -0.501284
|   |   |   |   |   |   |   |   |   |   |   |   |   |   |   |   3 <= 0.518809
|   |   |   |   |   |   |   |   |   |   |   |   |   |   |   |   |   9 <= 1.526162
|   |   |   |   |   |   |   |   |   |   |   |   |   |   |   |   |   |   40 <= 1.976393
|   |   |   |   |   |   |   |   |   |   |   |   |   |   |   |   |   |   |   59 <= 0.644942
|   |   |   |   |   |   |   |   |   |   |   |   |   |   |   |   |   |   |   |   3 <= -1.765252
|   |   |   |   |   |   |   |   |   |   |   |   |   |   |   |   |   |   |   |   |   8 <= -0.225153
|   |   |   |   |   |   |   |   |   |   |   |   |   |   |   |   |   |   |   |   |   |   58 <= 1.155646: Kamuran (12.0)
|   |   |   |   |   |   |   |   |   |   |   |   |   |   |   |   |   |   |   |   |   |   58 > 1.155646: Firat (2.0/1.0)
|   |   |   |   |   |   |   |   |   |   |   |   |   |   |   |   |   |   |   |   |   8 > -0.225153
|   |   |   |   |   |   |   |   |   |   |   |   |   |   |   |   |   |   |   |   |   |   39 <= 0.778653
|   |   |   |   |   |   |   |   |   |   |   |   |   |   |   |   |   |   |   |   |   |   |   2 <= -1.098479: Kamuran (3.0)
|   |   |   |   |   |   |   |   |   |   |   |   |   |   |   |   |   |   |   |   |   |   |   2 > -1.098479
|   |   |   |   |   |   |   |   |   |   |   |   |   |   |   |   |   |   |   |   |   |   |   |   40 <= 1.566638
|   |   |   |   |   |   |   |   |   |   |   |   |   |   |   |   |   |   |   |   |   |   |   |   |   24 <= -0.092035
|   |   |   |   |   |   |   |   |   |   |   |   |   |   |   |   |   |   |   |   |   |   |   |   |   |   31 <= -1.808255: Firat (2.0)
|   |   |   |   |   |   |   |   |   |   |   |   |   |   |   |   |   |   |   |   |   |   |   |   |   |   31 > -1.808255
|   |   |   |   |   |   |   |   |   |   |   |   |   |   |   |   |   |   |   |   |   |   |   |   |   |   |   8 <= 0.00815: Firat (3.0/1.0)
|   |   |   |   |   |   |   |   |   |   |   |   |   |   |   |   |   |   |   |   |   |   |   |   |   |   |   8 > 0.00815: Marvin (24.0)
|   |   |   |   |   |   |   |   |   |   |   |   |   |   |   |   |   |   |   |   |   |   |   |   |   24 > -0.092035
|   |   |   |   |   |   |   |   |   |   |   |   |   |   |   |   |   |   |   |   |   |   |   |   |   |   23 <= 0.871408
|   |   |   |   |   |   |   |   |   |   |   |   |   |   |   |   |   |   |   |   |   |   |   |   |   |   |   40 <= 0.834717: Firat (12.0)
|   |   |   |   |   |   |   |   |   |   |   |   |   |   |   |   |   |   |   |   |   |   |   |   |   |   |   40 > 0.834717: Marvin (4.0/1.0)
|   |   |   |   |   |   |   |   |   |   |   |   |   |   |   |   |   |   |   |   |   |   |   |   |   |   23 > 0.871408: Marvin (5.0)
|   |   |   |   |   |   |   |   |   |   |   |   |   |   |   |   |   |   |   |   |   |   |   |   40 > 1.566638: Kamuran (3.0/1.0)
|   |   |   |   |   |   |   |   |   |   |   |   |   |   |   |   |   |   |   |   |   |   39 > 0.778653: Kamuran (8.0/1.0)
|   |   |   |   |   |   |   |   |   |   |   |   |   |   |   |   |   |   |   |   3 > -1.765252
|   |   |   |   |   |   |   |   |   |   |   |   |   |   |   |   |   |   |   |   |   16 <= -0.420608: Firat (352.0/104.0)
|   |   |   |   |   |   |   |   |   |   |   |   |   |   |   |   |   |   |   |   |   16 > -0.420608
|   |   |   |   |   |   |   |   |   |   |   |   |   |   |   |   |   |   |   |   |   |   11 <= -0.029206
|   |   |   |   |   |   |   |   |   |   |   |   |   |   |   |   |   |   |   |   |   |   |   12 <= 0.456122
|   |   |   |   |   |   |   |   |   |   |   |   |   |   |   |   |   |   |   |   |   |   |   |   41 <= 0.010338: Marvin (4.0)
|   |   |   |   |   |   |   |   |   |   |   |   |   |   |   |   |   |   |   |   |   |   |   |   41 > 0.010338
|   |   |   |   |   |   |   |   |   |   |   |   |   |   |   |   |   |   |   |   |   |   |   |   |   6 <= -0.236483
|   |   |   |   |   |   |   |   |   |   |   |   |   |   |   |   |   |   |   |   |   |   |   |   |   |   30 <= -1.449378: Firat (3.0/1.0)
|   |   |   |   |   |   |   |   |   |   |   |   |   |   |   |   |   |   |   |   |   |   |   |   |   |   30 > -1.449378
|   |   |   |   |   |   |   |   |   |   |   |   |   |   |   |   |   |   |   |   |   |   |   |   |   |   |   18 <= -1.071868: Firat (2.0)
|   |   |   |   |   |   |   |   |   |   |   |   |   |   |   |   |   |   |   |   |   |   |   |   |   |   |   18 > -1.071868
|   |   |   |   |   |   |   |   |   |   |   |   |   |   |   |   |   |   |   |   |   |   |   |   |   |   |   |   20 <= 0.800633
|   |   |   |   |   |   |   |   |   |   |   |   |   |   |   |   |   |   |   |   |   |   |   |   |   |   |   |   |   5 <= -0.760284: Firat (3.0/1.0)
|   |   |   |   |   |   |   |   |   |   |   |   |   |   |   |   |   |   |   |   |   |   |   |   |   |   |   |   |   5 > -0.760284: Kamuran (26.0)
|   |   |   |   |   |   |   |   |   |   |   |   |   |   |   |   |   |   |   |   |   |   |   |   |   |   |   |   20 > 0.800633: Firat (2.0)
|   |   |   |   |   |   |   |   |   |   |   |   |   |   |   |   |   |   |   |   |   |   |   |   |   6 > -0.236483
|   |   |   |   |   |   |   |   |   |   |   |   |   |   |   |   |   |   |   |   |   |   |   |   |   |   17 <= -0.438565: Marvin (5.0)
|   |   |   |   |   |   |   |   |   |   |   |   |   |   |   |   |   |   |   |   |   |   |   |   |   |   17 > -0.438565: Firat (8.0/1.0)
|   |   |   |   |   |   |   |   |   |   |   |   |   |   |   |   |   |   |   |   |   |   |   12 > 0.456122
|   |   |   |   |   |   |   |   |   |   |   |   |   |   |   |   |   |   |   |   |   |   |   |   46 <= 1.249277
|   |   |   |   |   |   |   |   |   |   |   |   |   |   |   |   |   |   |   |   |   |   |   |   |   37 <= -1.210019: Kamuran (2.0/1.0)
|   |   |   |   |   |   |   |   |   |   |   |   |   |   |   |   |   |   |   |   |   |   |   |   |   37 > -1.210019
|   |   |   |   |   |   |   |   |   |   |   |   |   |   |   |   |   |   |   |   |   |   |   |   |   |   10 <= -1.236177: Marvin (2.0)
|   |   |   |   |   |   |   |   |   |   |   |   |   |   |   |   |   |   |   |   |   |   |   |   |   |   10 > -1.236177: Firat (46.0/1.0)
|   |   |   |   |   |   |   |   |   |   |   |   |   |   |   |   |   |   |   |   |   |   |   |   46 > 1.249277: Marvin (3.0/1.0)
|   |   |   |   |   |   |   |   |   |   |   |   |   |   |   |   |   |   |   |   |   |   11 > -0.029206
|   |   |   |   |   |   |   |   |   |   |   |   |   |   |   |   |   |   |   |   |   |   |   10 <= 0.224857
|   |   |   |   |   |   |   |   |   |   |   |   |   |   |   |   |   |   |   |   |   |   |   |   0 <= -0.335964
|   |   |   |   |   |   |   |   |   |   |   |   |   |   |   |   |   |   |   |   |   |   |   |   |   56 <= 0.680915
|   |   |   |   |   |   |   |   |   |   |   |   |   |   |   |   |   |   |   |   |   |   |   |   |   |   3 <= -0.100081
|   |   |   |   |   |   |   |   |   |   |   |   |   |   |   |   |   |   |   |   |   |   |   |   |   |   |   53 <= -0.06872: Marvin (3.0/1.0)
|   |   |   |   |   |   |   |   |   |   |   |   |   |   |   |   |   |   |   |   |   |   |   |   |   |   |   53 > -0.06872: Firat (14.0)
|   |   |   |   |   |   |   |   |   |   |   |   |   |   |   |   |   |   |   |   |   |   |   |   |   |   3 > -0.100081: Kamuran (4.0/1.0)
|   |   |   |   |   |   |   |   |   |   |   |   |   |   |   |   |   |   |   |   |   |   |   |   |   56 > 0.680915: Kamuran (4.0)
|   |   |   |   |   |   |   |   |   |   |   |   |   |   |   |   |   |   |   |   |   |   |   |   0 > -0.335964: Kamuran (5.0)
|   |   |   |   |   |   |   |   |   |   |   |   |   |   |   |   |   |   |   |   |   |   |   10 > 0.224857
|   |   |   |   |   |   |   |   |   |   |   |   |   |   |   |   |   |   |   |   |   |   |   |   54 <= -0.974709: Marvin (3.0/1.0)
|   |   |   |   |   |   |   |   |   |   |   |   |   |   |   |   |   |   |   |   |   |   |   |   54 > -0.974709: Kamuran (38.0)
|   |   |   |   |   |   |   |   |   |   |   |   |   |   |   |   |   |   |   59 > 0.644942
|   |   |   |   |   |   |   |   |   |   |   |   |   |   |   |   |   |   |   |   3 <= -1.007796: Marvin (11.0/2.0)
|   |   |   |   |   |   |   |   |   |   |   |   |   |   |   |   |   |   |   |   3 > -1.007796: Kamuran (39.0/15.0)
|   |   |   |   |   |   |   |   |   |   |   |   |   |   |   |   |   |   40 > 1.976393
|   |   |   |   |   |   |   |   |   |   |   |   |   |   |   |   |   |   |   3 <= -1.842882: Marvin (5.0)
|   |   |   |   |   |   |   |   |   |   |   |   |   |   |   |   |   |   |   3 > -1.842882
|   |   |   |   |   |   |   |   |   |   |   |   |   |   |   |   |   |   |   |   11 <= -1.308269: Marvin (4.0)
|   |   |   |   |   |   |   |   |   |   |   |   |   |   |   |   |   |   |   |   11 > -1.308269
|   |   |   |   |   |   |   |   |   |   |   |   |   |   |   |   |   |   |   |   |   52 <= 1.737649: Kamuran (19.0/1.0)
|   |   |   |   |   |   |   |   |   |   |   |   |   |   |   |   |   |   |   |   |   52 > 1.737649: Marvin (2.0)
|   |   |   |   |   |   |   |   |   |   |   |   |   |   |   |   |   9 > 1.526162: Kamuran (63.0/12.0)
|   |   |   |   |   |   |   |   |   |   |   |   |   |   |   |   3 > 0.518809: Kamuran (222.0/25.0)
|   |   |   |   |   |   |   |   |   |   |   |   |   |   |   4 > -0.501284
|   |   |   |   |   |   |   |   |   |   |   |   |   |   |   |   2 <= -0.323838
|   |   |   |   |   |   |   |   |   |   |   |   |   |   |   |   |   11 <= -0.415974
|   |   |   |   |   |   |   |   |   |   |   |   |   |   |   |   |   |   12 <= 0.433315: Kamuran (95.0/28.0)
|   |   |   |   |   |   |   |   |   |   |   |   |   |   |   |   |   |   12 > 0.433315: Marvin (21.0/1.0)
|   |   |   |   |   |   |   |   |   |   |   |   |   |   |   |   |   11 > -0.415974
|   |   |   |   |   |   |   |   |   |   |   |   |   |   |   |   |   |   50 <= -1.80265: Kamuran (19.0/1.0)
|   |   |   |   |   |   |   |   |   |   |   |   |   |   |   |   |   |   50 > -1.80265
|   |   |   |   |   |   |   |   |   |   |   |   |   |   |   |   |   |   |   12 <= 1.745706
|   |   |   |   |   |   |   |   |   |   |   |   |   |   |   |   |   |   |   |   21 <= -1.66957
|   |   |   |   |   |   |   |   |   |   |   |   |   |   |   |   |   |   |   |   |   12 <= 0.547409: Marvin (17.0)
|   |   |   |   |   |   |   |   |   |   |   |   |   |   |   |   |   |   |   |   |   12 > 0.547409: Kamuran (6.0/3.0)
|   |   |   |   |   |   |   |   |   |   |   |   |   |   |   |   |   |   |   |   21 > -1.66957
|   |   |   |   |   |   |   |   |   |   |   |   |   |   |   |   |   |   |   |   |   39 <= -0.939089
|   |   |   |   |   |   |   |   |   |   |   |   |   |   |   |   |   |   |   |   |   |   8 <= 0.285962
|   |   |   |   |   |   |   |   |   |   |   |   |   |   |   |   |   |   |   |   |   |   |   27 <= -0.175947: Marvin (9.0)
|   |   |   |   |   |   |   |   |   |   |   |   |   |   |   |   |   |   |   |   |   |   |   27 > -0.175947: Kamuran (3.0)
|   |   |   |   |   |   |   |   |   |   |   |   |   |   |   |   |   |   |   |   |   |   8 > 0.285962: Kamuran (6.0)
|   |   |   |   |   |   |   |   |   |   |   |   |   |   |   |   |   |   |   |   |   39 > -0.939089
|   |   |   |   |   |   |   |   |   |   |   |   |   |   |   |   |   |   |   |   |   |   17 <= 1.695734
|   |   |   |   |   |   |   |   |   |   |   |   |   |   |   |   |   |   |   |   |   |   |   6 <= -0.791024
|   |   |   |   |   |   |   |   |   |   |   |   |   |   |   |   |   |   |   |   |   |   |   |   14 <= 1.646023: Marvin (10.0)
|   |   |   |   |   |   |   |   |   |   |   |   |   |   |   |   |   |   |   |   |   |   |   |   14 > 1.646023: Kamuran (2.0)
|   |   |   |   |   |   |   |   |   |   |   |   |   |   |   |   |   |   |   |   |   |   |   6 > -0.791024
|   |   |   |   |   |   |   |   |   |   |   |   |   |   |   |   |   |   |   |   |   |   |   |   10 <= 0.091169
|   |   |   |   |   |   |   |   |   |   |   |   |   |   |   |   |   |   |   |   |   |   |   |   |   3 <= 1.032998
|   |   |   |   |   |   |   |   |   |   |   |   |   |   |   |   |   |   |   |   |   |   |   |   |   |   10 <= -1.439804
|   |   |   |   |   |   |   |   |   |   |   |   |   |   |   |   |   |   |   |   |   |   |   |   |   |   |   2 <= -1.190178: Kamuran (6.0/2.0)
|   |   |   |   |   |   |   |   |   |   |   |   |   |   |   |   |   |   |   |   |   |   |   |   |   |   |   2 > -1.190178
|   |   |   |   |   |   |   |   |   |   |   |   |   |   |   |   |   |   |   |   |   |   |   |   |   |   |   |   28 <= 0.984089: Marvin (14.0)
|   |   |   |   |   |   |   |   |   |   |   |   |   |   |   |   |   |   |   |   |   |   |   |   |   |   |   |   28 > 0.984089: Firat (2.0)
|   |   |   |   |   |   |   |   |   |   |   |   |   |   |   |   |   |   |   |   |   |   |   |   |   |   10 > -1.439804
|   |   |   |   |   |   |   |   |   |   |   |   |   |   |   |   |   |   |   |   |   |   |   |   |   |   |   59 <= 0.681263: Firat (115.0/23.0)
|   |   |   |   |   |   |   |   |   |   |   |   |   |   |   |   |   |   |   |   |   |   |   |   |   |   |   59 > 0.681263
|   |   |   |   |   |   |   |   |   |   |   |   |   |   |   |   |   |   |   |   |   |   |   |   |   |   |   |   16 <= -0.700606: Marvin (9.0/1.0)
|   |   |   |   |   |   |   |   |   |   |   |   |   |   |   |   |   |   |   |   |   |   |   |   |   |   |   |   16 > -0.700606
|   |   |   |   |   |   |   |   |   |   |   |   |   |   |   |   |   |   |   |   |   |   |   |   |   |   |   |   |   48 <= 0.628773: Firat (5.0/1.0)
|   |   |   |   |   |   |   |   |   |   |   |   |   |   |   |   |   |   |   |   |   |   |   |   |   |   |   |   |   48 > 0.628773: Kamuran (3.0)
|   |   |   |   |   |   |   |   |   |   |   |   |   |   |   |   |   |   |   |   |   |   |   |   |   3 > 1.032998
|   |   |   |   |   |   |   |   |   |   |   |   |   |   |   |   |   |   |   |   |   |   |   |   |   |   34 <= 0.310063: Marvin (6.0)
|   |   |   |   |   |   |   |   |   |   |   |   |   |   |   |   |   |   |   |   |   |   |   |   |   |   34 > 0.310063: Kamuran (3.0)
|   |   |   |   |   |   |   |   |   |   |   |   |   |   |   |   |   |   |   |   |   |   |   |   10 > 0.091169
|   |   |   |   |   |   |   |   |   |   |   |   |   |   |   |   |   |   |   |   |   |   |   |   |   2 <= -1.62383
|   |   |   |   |   |   |   |   |   |   |   |   |   |   |   |   |   |   |   |   |   |   |   |   |   |   19 <= 0.504017: Marvin (5.0)
|   |   |   |   |   |   |   |   |   |   |   |   |   |   |   |   |   |   |   |   |   |   |   |   |   |   19 > 0.504017: Firat (14.0/1.0)
|   |   |   |   |   |   |   |   |   |   |   |   |   |   |   |   |   |   |   |   |   |   |   |   |   2 > -1.62383
|   |   |   |   |   |   |   |   |   |   |   |   |   |   |   |   |   |   |   |   |   |   |   |   |   |   8 <= -1.534919: Marvin (14.0)
|   |   |   |   |   |   |   |   |   |   |   |   |   |   |   |   |   |   |   |   |   |   |   |   |   |   8 > -1.534919
|   |   |   |   |   |   |   |   |   |   |   |   |   |   |   |   |   |   |   |   |   |   |   |   |   |   |   34 <= -0.585126
|   |   |   |   |   |   |   |   |   |   |   |   |   |   |   |   |   |   |   |   |   |   |   |   |   |   |   |   36 <= -0.513747: Kamuran (3.0)
|   |   |   |   |   |   |   |   |   |   |   |   |   |   |   |   |   |   |   |   |   |   |   |   |   |   |   |   36 > -0.513747: Marvin (9.0)
|   |   |   |   |   |   |   |   |   |   |   |   |   |   |   |   |   |   |   |   |   |   |   |   |   |   |   34 > -0.585126
|   |   |   |   |   |   |   |   |   |   |   |   |   |   |   |   |   |   |   |   |   |   |   |   |   |   |   |   4 <= 1.631178
|   |   |   |   |   |   |   |   |   |   |   |   |   |   |   |   |   |   |   |   |   |   |   |   |   |   |   |   |   12 <= 1.14965
|   |   |   |   |   |   |   |   |   |   |   |   |   |   |   |   |   |   |   |   |   |   |   |   |   |   |   |   |   |   16 <= -1.609664: Marvin (3.0/1.0)
|   |   |   |   |   |   |   |   |   |   |   |   |   |   |   |   |   |   |   |   |   |   |   |   |   |   |   |   |   |   16 > -1.609664: Kamuran (42.0/8.0)
|   |   |   |   |   |   |   |   |   |   |   |   |   |   |   |   |   |   |   |   |   |   |   |   |   |   |   |   |   12 > 1.14965: Marvin (2.0)
|   |   |   |   |   |   |   |   |   |   |   |   |   |   |   |   |   |   |   |   |   |   |   |   |   |   |   |   4 > 1.631178: Marvin (5.0/2.0)
|   |   |   |   |   |   |   |   |   |   |   |   |   |   |   |   |   |   |   |   |   |   17 > 1.695734
|   |   |   |   |   |   |   |   |   |   |   |   |   |   |   |   |   |   |   |   |   |   |   12 <= -1.045676: Firat (4.0)
|   |   |   |   |   |   |   |   |   |   |   |   |   |   |   |   |   |   |   |   |   |   |   12 > -1.045676
|   |   |   |   |   |   |   |   |   |   |   |   |   |   |   |   |   |   |   |   |   |   |   |   0 <= -1.604061: Firat (2.0)
|   |   |   |   |   |   |   |   |   |   |   |   |   |   |   |   |   |   |   |   |   |   |   |   0 > -1.604061: Kamuran (13.0/1.0)
|   |   |   |   |   |   |   |   |   |   |   |   |   |   |   |   |   |   |   12 > 1.745706
|   |   |   |   |   |   |   |   |   |   |   |   |   |   |   |   |   |   |   |   30 <= 1.407025
|   |   |   |   |   |   |   |   |   |   |   |   |   |   |   |   |   |   |   |   |   16 <= -1.195341: Firat (4.0)
|   |   |   |   |   |   |   |   |   |   |   |   |   |   |   |   |   |   |   |   |   16 > -1.195341
|   |   |   |   |   |   |   |   |   |   |   |   |   |   |   |   |   |   |   |   |   |   9 <= -1.195979: Firat (3.0/1.0)
|   |   |   |   |   |   |   |   |   |   |   |   |   |   |   |   |   |   |   |   |   |   9 > -1.195979: Kamuran (25.0)
|   |   |   |   |   |   |   |   |   |   |   |   |   |   |   |   |   |   |   |   30 > 1.407025: Marvin (3.0)
|   |   |   |   |   |   |   |   |   |   |   |   |   |   |   |   2 > -0.323838
|   |   |   |   |   |   |   |   |   |   |   |   |   |   |   |   |   3 <= -1.277056
|   |   |   |   |   |   |   |   |   |   |   |   |   |   |   |   |   |   14 <= -0.008116
|   |   |   |   |   |   |   |   |   |   |   |   |   |   |   |   |   |   |   9 <= -0.279552
|   |   |   |   |   |   |   |   |   |   |   |   |   |   |   |   |   |   |   |   35 <= 0.6419
|   |   |   |   |   |   |   |   |   |   |   |   |   |   |   |   |   |   |   |   |   8 <= -1.508419: Kamuran (2.0)
|   |   |   |   |   |   |   |   |   |   |   |   |   |   |   |   |   |   |   |   |   8 > -1.508419: Marvin (22.0/1.0)
|   |   |   |   |   |   |   |   |   |   |   |   |   |   |   |   |   |   |   |   35 > 0.6419: Kamuran (6.0/1.0)
|   |   |   |   |   |   |   |   |   |   |   |   |   |   |   |   |   |   |   9 > -0.279552
|   |   |   |   |   |   |   |   |   |   |   |   |   |   |   |   |   |   |   |   50 <= 1.038438
|   |   |   |   |   |   |   |   |   |   |   |   |   |   |   |   |   |   |   |   |   20 <= -1.164788: Marvin (2.0)
|   |   |   |   |   |   |   |   |   |   |   |   |   |   |   |   |   |   |   |   |   20 > -1.164788: Kamuran (31.0/1.0)
|   |   |   |   |   |   |   |   |   |   |   |   |   |   |   |   |   |   |   |   50 > 1.038438: Marvin (3.0/1.0)
|   |   |   |   |   |   |   |   |   |   |   |   |   |   |   |   |   |   14 > -0.008116
|   |   |   |   |   |   |   |   |   |   |   |   |   |   |   |   |   |   |   19 <= -0.54929: Kamuran (5.0/1.0)
|   |   |   |   |   |   |   |   |   |   |   |   |   |   |   |   |   |   |   19 > -0.54929
|   |   |   |   |   |   |   |   |   |   |   |   |   |   |   |   |   |   |   |   32 <= -1.580484: Kamuran (4.0/2.0)
|   |   |   |   |   |   |   |   |   |   |   |   |   |   |   |   |   |   |   |   32 > -1.580484: Marvin (105.0/4.0)
|   |   |   |   |   |   |   |   |   |   |   |   |   |   |   |   |   3 > -1.277056
|   |   |   |   |   |   |   |   |   |   |   |   |   |   |   |   |   |   8 <= 1.184222
|   |   |   |   |   |   |   |   |   |   |   |   |   |   |   |   |   |   |   39 <= 0.107178
|   |   |   |   |   |   |   |   |   |   |   |   |   |   |   |   |   |   |   |   10 <= -1.515614
|   |   |   |   |   |   |   |   |   |   |   |   |   |   |   |   |   |   |   |   |   29 <= -0.479121: Kamuran (10.0)
|   |   |   |   |   |   |   |   |   |   |   |   |   |   |   |   |   |   |   |   |   29 > -0.479121: Marvin (11.0)
|   |   |   |   |   |   |   |   |   |   |   |   |   |   |   |   |   |   |   |   10 > -1.515614: Kamuran (334.0/66.0)
|   |   |   |   |   |   |   |   |   |   |   |   |   |   |   |   |   |   |   39 > 0.107178
|   |   |   |   |   |   |   |   |   |   |   |   |   |   |   |   |   |   |   |   16 <= -1.185724
|   |   |   |   |   |   |   |   |   |   |   |   |   |   |   |   |   |   |   |   |   17 <= -0.986083: Kamuran (3.0)
|   |   |   |   |   |   |   |   |   |   |   |   |   |   |   |   |   |   |   |   |   17 > -0.986083: Marvin (26.0/1.0)
|   |   |   |   |   |   |   |   |   |   |   |   |   |   |   |   |   |   |   |   16 > -1.185724
|   |   |   |   |   |   |   |   |   |   |   |   |   |   |   |   |   |   |   |   |   3 <= -0.565504
|   |   |   |   |   |   |   |   |   |   |   |   |   |   |   |   |   |   |   |   |   |   49 <= 0.795248
|   |   |   |   |   |   |   |   |   |   |   |   |   |   |   |   |   |   |   |   |   |   |   4 <= 0.003299: Kamuran (5.0/1.0)
|   |   |   |   |   |   |   |   |   |   |   |   |   |   |   |   |   |   |   |   |   |   |   4 > 0.003299: Marvin (27.0/1.0)
|   |   |   |   |   |   |   |   |   |   |   |   |   |   |   |   |   |   |   |   |   |   49 > 0.795248: Kamuran (5.0/1.0)
|   |   |   |   |   |   |   |   |   |   |   |   |   |   |   |   |   |   |   |   |   3 > -0.565504
|   |   |   |   |   |   |   |   |   |   |   |   |   |   |   |   |   |   |   |   |   |   33 <= -0.658705
|   |   |   |   |   |   |   |   |   |   |   |   |   |   |   |   |   |   |   |   |   |   |   22 <= -1.719546: Marvin (2.0)
|   |   |   |   |   |   |   |   |   |   |   |   |   |   |   |   |   |   |   |   |   |   |   22 > -1.719546
|   |   |   |   |   |   |   |   |   |   |   |   |   |   |   |   |   |   |   |   |   |   |   |   7 <= 1.388578
|   |   |   |   |   |   |   |   |   |   |   |   |   |   |   |   |   |   |   |   |   |   |   |   |   52 <= 0.973535
|   |   |   |   |   |   |   |   |   |   |   |   |   |   |   |   |   |   |   |   |   |   |   |   |   |   6 <= -0.11957: Kamuran (20.0)
|   |   |   |   |   |   |   |   |   |   |   |   |   |   |   |   |   |   |   |   |   |   |   |   |   |   6 > -0.11957: Firat (3.0/1.0)
|   |   |   |   |   |   |   |   |   |   |   |   |   |   |   |   |   |   |   |   |   |   |   |   |   52 > 0.973535: Firat (5.0/1.0)
|   |   |   |   |   |   |   |   |   |   |   |   |   |   |   |   |   |   |   |   |   |   |   |   7 > 1.388578: Firat (2.0/1.0)
|   |   |   |   |   |   |   |   |   |   |   |   |   |   |   |   |   |   |   |   |   |   33 > -0.658705
|   |   |   |   |   |   |   |   |   |   |   |   |   |   |   |   |   |   |   |   |   |   |   46 <= 0.15087
|   |   |   |   |   |   |   |   |   |   |   |   |   |   |   |   |   |   |   |   |   |   |   |   23 <= -1.915534: Firat (2.0/1.0)
|   |   |   |   |   |   |   |   |   |   |   |   |   |   |   |   |   |   |   |   |   |   |   |   23 > -1.915534: Kamuran (43.0/4.0)
|   |   |   |   |   |   |   |   |   |   |   |   |   |   |   |   |   |   |   |   |   |   |   46 > 0.15087
|   |   |   |   |   |   |   |   |   |   |   |   |   |   |   |   |   |   |   |   |   |   |   |   54 <= 0.316189
|   |   |   |   |   |   |   |   |   |   |   |   |   |   |   |   |   |   |   |   |   |   |   |   |   32 <= 0.311838
|   |   |   |   |   |   |   |   |   |   |   |   |   |   |   |   |   |   |   |   |   |   |   |   |   |   5 <= -0.572159: Marvin (3.0)
|   |   |   |   |   |   |   |   |   |   |   |   |   |   |   |   |   |   |   |   |   |   |   |   |   |   5 > -0.572159
|   |   |   |   |   |   |   |   |   |   |   |   |   |   |   |   |   |   |   |   |   |   |   |   |   |   |   6 <= -0.162961
|   |   |   |   |   |   |   |   |   |   |   |   |   |   |   |   |   |   |   |   |   |   |   |   |   |   |   |   52 <= -0.97153: Marvin (3.0/1.0)
|   |   |   |   |   |   |   |   |   |   |   |   |   |   |   |   |   |   |   |   |   |   |   |   |   |   |   |   52 > -0.97153: Kamuran (22.0)
|   |   |   |   |   |   |   |   |   |   |   |   |   |   |   |   |   |   |   |   |   |   |   |   |   |   |   6 > -0.162961: Marvin (2.0)
|   |   |   |   |   |   |   |   |   |   |   |   |   |   |   |   |   |   |   |   |   |   |   |   |   32 > 0.311838
|   |   |   |   |   |   |   |   |   |   |   |   |   |   |   |   |   |   |   |   |   |   |   |   |   |   24 <= -0.545819: Kamuran (3.0)
|   |   |   |   |   |   |   |   |   |   |   |   |   |   |   |   |   |   |   |   |   |   |   |   |   |   24 > -0.545819: Marvin (13.0/1.0)
|   |   |   |   |   |   |   |   |   |   |   |   |   |   |   |   |   |   |   |   |   |   |   |   54 > 0.316189
|   |   |   |   |   |   |   |   |   |   |   |   |   |   |   |   |   |   |   |   |   |   |   |   |   50 <= -1.183597: Kamuran (3.0)
|   |   |   |   |   |   |   |   |   |   |   |   |   |   |   |   |   |   |   |   |   |   |   |   |   50 > -1.183597: Marvin (20.0)
|   |   |   |   |   |   |   |   |   |   |   |   |   |   |   |   |   |   8 > 1.184222
|   |   |   |   |   |   |   |   |   |   |   |   |   |   |   |   |   |   |   5 <= -0.825146
|   |   |   |   |   |   |   |   |   |   |   |   |   |   |   |   |   |   |   |   8 <= 1.470451: Kamuran (3.0)
|   |   |   |   |   |   |   |   |   |   |   |   |   |   |   |   |   |   |   |   8 > 1.470451: Firat (7.0)
|   |   |   |   |   |   |   |   |   |   |   |   |   |   |   |   |   |   |   5 > -0.825146: Kamuran (85.0/5.0)
|   |   |   |   |   |   |   |   |   |   |   |   |   |   13 > 0.662222
|   |   |   |   |   |   |   |   |   |   |   |   |   |   |   19 <= 0.195295
|   |   |   |   |   |   |   |   |   |   |   |   |   |   |   |   12 <= -0.605804
|   |   |   |   |   |   |   |   |   |   |   |   |   |   |   |   |   20 <= -1.549393: Marvin (8.0)
|   |   |   |   |   |   |   |   |   |   |   |   |   |   |   |   |   20 > -1.549393
|   |   |   |   |   |   |   |   |   |   |   |   |   |   |   |   |   |   42 <= -0.080997
|   |   |   |   |   |   |   |   |   |   |   |   |   |   |   |   |   |   |   44 <= -1.178781: Firat (6.0/2.0)
|   |   |   |   |   |   |   |   |   |   |   |   |   |   |   |   |   |   |   44 > -1.178781
|   |   |   |   |   |   |   |   |   |   |   |   |   |   |   |   |   |   |   |   14 <= -1.673218: Firat (3.0)
|   |   |   |   |   |   |   |   |   |   |   |   |   |   |   |   |   |   |   |   14 > -1.673218: Marvin (20.0/1.0)
|   |   |   |   |   |   |   |   |   |   |   |   |   |   |   |   |   |   42 > -0.080997
|   |   |   |   |   |   |   |   |   |   |   |   |   |   |   |   |   |   |   3 <= -0.644853: Kamuran (6.0)
|   |   |   |   |   |   |   |   |   |   |   |   |   |   |   |   |   |   |   3 > -0.644853
|   |   |   |   |   |   |   |   |   |   |   |   |   |   |   |   |   |   |   |   14 <= 0.418192
|   |   |   |   |   |   |   |   |   |   |   |   |   |   |   |   |   |   |   |   |   16 <= -0.227976: Firat (9.0)
|   |   |   |   |   |   |   |   |   |   |   |   |   |   |   |   |   |   |   |   |   16 > -0.227976: Kamuran (2.0/1.0)
|   |   |   |   |   |   |   |   |   |   |   |   |   |   |   |   |   |   |   |   14 > 0.418192: Kamuran (3.0)
|   |   |   |   |   |   |   |   |   |   |   |   |   |   |   |   12 > -0.605804
|   |   |   |   |   |   |   |   |   |   |   |   |   |   |   |   |   15 <= 0.207: Kamuran (155.0/30.0)
|   |   |   |   |   |   |   |   |   |   |   |   |   |   |   |   |   15 > 0.207
|   |   |   |   |   |   |   |   |   |   |   |   |   |   |   |   |   |   14 <= -0.038586
|   |   |   |   |   |   |   |   |   |   |   |   |   |   |   |   |   |   |   12 <= -0.431434: Kamuran (2.0)
|   |   |   |   |   |   |   |   |   |   |   |   |   |   |   |   |   |   |   12 > -0.431434
|   |   |   |   |   |   |   |   |   |   |   |   |   |   |   |   |   |   |   |   4 <= -0.814255
|   |   |   |   |   |   |   |   |   |   |   |   |   |   |   |   |   |   |   |   |   38 <= -0.779092: Marvin (4.0/1.0)
|   |   |   |   |   |   |   |   |   |   |   |   |   |   |   |   |   |   |   |   |   38 > -0.779092: Firat (10.0/1.0)
|   |   |   |   |   |   |   |   |   |   |   |   |   |   |   |   |   |   |   |   4 > -0.814255
|   |   |   |   |   |   |   |   |   |   |   |   |   |   |   |   |   |   |   |   |   55 <= 0.635117: Marvin (19.0)
|   |   |   |   |   |   |   |   |   |   |   |   |   |   |   |   |   |   |   |   |   55 > 0.635117: Firat (2.0)
|   |   |   |   |   |   |   |   |   |   |   |   |   |   |   |   |   |   14 > -0.038586
|   |   |   |   |   |   |   |   |   |   |   |   |   |   |   |   |   |   |   59 <= 1.204812
|   |   |   |   |   |   |   |   |   |   |   |   |   |   |   |   |   |   |   |   1 <= -1.442114: Marvin (4.0/1.0)
|   |   |   |   |   |   |   |   |   |   |   |   |   |   |   |   |   |   |   |   1 > -1.442114: Kamuran (20.0)
|   |   |   |   |   |   |   |   |   |   |   |   |   |   |   |   |   |   |   59 > 1.204812: Marvin (5.0)
|   |   |   |   |   |   |   |   |   |   |   |   |   |   |   19 > 0.195295
|   |   |   |   |   |   |   |   |   |   |   |   |   |   |   |   11 <= -0.923817
|   |   |   |   |   |   |   |   |   |   |   |   |   |   |   |   |   14 <= 0.722159
|   |   |   |   |   |   |   |   |   |   |   |   |   |   |   |   |   |   3 <= 0.005109
|   |   |   |   |   |   |   |   |   |   |   |   |   |   |   |   |   |   |   5 <= 0.996641
|   |   |   |   |   |   |   |   |   |   |   |   |   |   |   |   |   |   |   |   7 <= -1.338571: Kamuran (2.0/1.0)
|   |   |   |   |   |   |   |   |   |   |   |   |   |   |   |   |   |   |   |   7 > -1.338571: Firat (29.0/3.0)
|   |   |   |   |   |   |   |   |   |   |   |   |   |   |   |   |   |   |   5 > 0.996641: Marvin (5.0)
|   |   |   |   |   |   |   |   |   |   |   |   |   |   |   |   |   |   3 > 0.005109
|   |   |   |   |   |   |   |   |   |   |   |   |   |   |   |   |   |   |   20 <= 0.220345: Kamuran (15.0)
|   |   |   |   |   |   |   |   |   |   |   |   |   |   |   |   |   |   |   20 > 0.220345: Marvin (3.0/1.0)
|   |   |   |   |   |   |   |   |   |   |   |   |   |   |   |   |   14 > 0.722159: Kamuran (38.0/2.0)
|   |   |   |   |   |   |   |   |   |   |   |   |   |   |   |   11 > -0.923817
|   |   |   |   |   |   |   |   |   |   |   |   |   |   |   |   |   7 <= 1.027913
|   |   |   |   |   |   |   |   |   |   |   |   |   |   |   |   |   |   12 <= 0.16933
|   |   |   |   |   |   |   |   |   |   |   |   |   |   |   |   |   |   |   14 <= 0.270399
|   |   |   |   |   |   |   |   |   |   |   |   |   |   |   |   |   |   |   |   3 <= 0.709776
|   |   |   |   |   |   |   |   |   |   |   |   |   |   |   |   |   |   |   |   |   0 <= -1.372845: Kamuran (6.0)
